//Numpy array shape [196, 32]
//Min -0.973767340183
//Max 0.959393262863
//Number of zeros 0

#ifndef W3_H_
#define W3_H_

#ifdef __INTELFPGA_COMPILER__
hls_bankwidth(2)
hls_numbanks(16)
hls_max_replicates(1)
hls_memory_impl("BLOCK_RAM")
#endif
static const fc1_weight_t w3[8192] = {0.06414355, 0.13763548, -0.14747164, -0.14934775, -0.24348554, 0.11619867, -0.23485257, 0.11349687, -0.57057548, -0.19008087, -0.48854196, -0.14947908, -0.00502872, -0.09880003, -0.01811515, -0.06996889, -0.41432965, -0.43595457, -0.23782884, -0.40838158, -0.49722180, -0.37417617, -0.26892903, -0.25074324, -0.21985823, -0.19772325, -0.36637768, -0.02379882, 0.15740247, -0.10840103, 0.06724127, 0.12365588, 0.30772796, -0.00438421, -0.02472716, 0.07056233, -0.07761677, 0.00788052, -0.09259841, -0.08218926, -0.04687063, -0.39523718, -0.25861064, 0.15344292, 0.23635480, 0.14772974, 0.10372902, -0.04300577, -0.14333464, 0.11715426, 0.18789826, 0.20943731, 0.12919798, -0.03778627, -0.17251092, 0.05416310, 0.26406181, 0.17598791, 0.37146494, 0.14482814, 0.03355426, -0.13001209, 0.06910063, 0.12841603, 0.06981994, 0.24562089, 0.09621201, -0.21751426, -0.29540303, -0.43652287, 0.00796208, 0.17534158, 0.02702024, -0.20481090, -0.06685892, 0.29818892, -0.05140148, -0.06243326, 0.36993268, 0.34880072, 0.23458265, -0.08460843, -0.97376734, -0.65634906, 0.18485482, 0.17627659, -0.21540077, 0.01335554, 0.16246222, 0.33641964, 0.00430483, -0.16166496, 0.24025083, 0.38291016, 0.34517026, -0.01836026, -0.44111967, 0.04728235, -0.03549800, 0.09970918, 0.14014469, 0.28175923, 0.39944789, 0.04548940, -0.32503369, -0.39250144, 0.23144212, 0.64799297, 0.69038951, 0.13269357, -0.25360420, 0.11966288, -0.29460970, 0.02860372, -0.01807882, 0.32802230, 0.13337897, -0.01206933, -0.20978685, 0.14133018, 0.57003391, 0.47511461, 0.18380961, -0.20425488, -0.20749538, -0.13504142, 0.35635826, 0.01296849, -0.28484246, -0.28161302, -0.39328235, -0.39641804, -0.39237586, 0.28400066, 0.20545170, -0.04583441, -0.30253369, -0.44575471, -0.36970431, -0.12241982, 0.31255832, 0.19908611, -0.25253874, -0.42536834, -0.30201229, -0.20864454, -0.20658365, -0.10381480, -0.23527989, -0.35979214, -0.38563147, -0.54731888, -0.18030182, -0.02623726, -0.16079262, -0.08785292, -0.19220322, -0.12804939, 0.00528207, 0.05372384, -0.22642758, -0.29105017, -0.18049933, -0.33548552, -0.27043471, -0.26103941, -0.02926096, -0.09575048, -0.06465447, 0.05529745, 0.18851946, 0.21608452, 0.18699804, -0.00313220, -0.11251856, -0.04872770, -0.08728002, -0.00459497, -0.00608786, 0.09699099, 0.00694635, -0.11081353, -0.00963445, -0.02128407, 0.11616096, 0.42531052, 0.27230284, 0.02643438, -0.15698722, 0.30084151, 0.03556048, -0.07922000, 0.03629429, -0.03000121, -0.07208791, 0.03385158, 0.00000000, 0.00000000, 0.00000000, 0.00000000, 0.00000000, 0.00000000, 0.00000000, 0.00000000, 0.00000000, 0.00000000, 0.00000000, 0.00000000, 0.00000000, 0.00000000, 0.00000000, 0.00000000, 0.00000000, 0.00000000, 0.00000000, 0.00000000, 0.00000000, 0.00000000, 0.00000000, 0.00000000, 0.00000000, 0.00000000, 0.00000000, 0.00000000, 0.00000000, 0.00000000, 0.00000000, 0.00000000, 0.00000000, 0.00000000, 0.00000000, 0.00000000, 0.00000000, 0.00000000, 0.00000000, 0.00000000, 0.00000000, 0.00000000, 0.00000000, 0.00000000, 0.00000000, 0.00000000, 0.00000000, 0.00000000, 0.00000000, 0.00000000, 0.00000000, 0.00000000, 0.00000000, 0.00000000, 0.00000000, 0.00000000, 0.00000000, 0.00000000, 0.00000000, 0.00000000, 0.15776847, 0.11989702, -0.08744509, -0.04626595, -0.17080048, 0.02343554, 0.00399745, 0.25956017, -0.09372661, -0.19659492, -0.46782285, -0.15613262, -0.15960389, 0.00915422, 0.03621359, 0.14758061, -0.22054459, -0.15071526, -0.15821420, -0.35571903, -0.00636117, -0.00155946, 0.22330578, -0.11120271, 0.02728141, -0.12558800, -0.07312628, -0.35694030, -0.09290146, 0.01895147, -0.21037550, 0.14191367, 0.06071126, 0.07133342, 0.17824316, 0.12272251, 0.19737186, 0.10551162, 0.25562343, 0.18258555, 0.09118561, -0.00350730, -0.19218710, 0.08800657, 0.18391626, 0.02099344, 0.20828481, -0.09369459, -0.02211947, -0.04019145, -0.07744481, 0.02864924, 0.18090926, 0.40624249, 0.49671975, 0.21093786, 0.38041461, 0.15839072, 0.00346931, -0.02856210, 0.12596747, 0.23291062, 0.08724814, -0.02987259, 0.25375509, 0.28181243, 0.05268352, 0.09023447, 0.43329027, 0.23935094, 0.02044469, 0.09446808, -0.06207918, -0.05334365, -0.00474059, 0.43517482, 0.28836805, 0.04780157, 0.30314431, 0.11383633, 0.10020821, -0.03160292, -0.04103875, 0.00243859, 0.25589100, 0.11477708, 0.24636933, 0.07232964, 0.24948606, 0.40252817, 0.12517135, -0.04459866, 0.27185071, 0.13893224, 0.33348268, 0.12585932, -0.27973455, -0.02573978, 0.43922803, 0.34537521, 0.03793763, -0.00302912, 0.04380245, 0.30893776, -0.15839058, -0.05269243, 0.27655753, 0.27925205, 0.13372159, -0.04644783, -0.12002470, -0.26832190, 0.19700950, -0.20713581, -0.00238901, -0.00906040, -0.17749670, -0.01330880, -0.24450479, -0.01588974, 0.08065817, 0.34564587, 0.05644095, -0.29093719, -0.00736486, -0.07105300, 0.11837938, -0.13096900, 0.03187444, -0.12615931, -0.00247529, -0.06884292, -0.18490088, 0.05515099, -0.09389074, -0.12960206, 0.04150992, -0.19442391, -0.06303358, -0.15131325, 0.03110233, -0.14343777, 0.20830132, 0.03292273, -0.28853291, -0.12167473, -0.07868064, -0.19010963, -0.29416797, -0.08180690, -0.18800142, -0.14049496, -0.25691980, 0.18369409, 0.07923815, -0.30262813, -0.18921389, -0.11114752, 0.05812678, 0.22320883, 0.16007914, 0.29301548, 0.15890735, -0.07007544, -0.05576610, 0.23759429, 0.00163516, -0.05876860, 0.00423664, 0.56732392, 0.17174889, 0.09861495, 0.36701360, 0.26026484, 0.27927908, 0.44118911, 0.13277782, -0.04089234, -0.03792026, -0.04810115, -0.36992174, -0.27182162, -0.04235304, -0.09021023, -0.00818983, -0.33002624, -0.39990833, -0.27263996, -0.17095408, -0.16034517, -0.26737720, -0.09986852, -0.38487324, -0.05617647, 0.16236857, -0.08720432, 0.00000000, 0.00000000, 0.00000000, 0.00000000, 0.00000000, 0.00000000, 0.00000000, 0.00000000, 0.00000000, 0.00000000, 0.00000000, 0.00000000, 0.00000000, 0.00000000, 0.00000000, 0.00000000, 0.00000000, 0.00000000, 0.00000000, 0.00000000, 0.00000000, 0.00000000, 0.00000000, 0.00000000, 0.00000000, 0.00000000, 0.00000000, 0.00000000, 0.00000000, 0.00000000, 0.00000000, 0.00000000, 0.00000000, 0.00000000, 0.00000000, 0.00000000, 0.00000000, 0.00000000, 0.00000000, 0.00000000, 0.00000000, 0.00000000, 0.00000000, 0.00000000, 0.00000000, 0.00000000, 0.00000000, 0.00000000, 0.00000000, 0.00000000, 0.00000000, 0.00000000, 0.00000000, 0.00000000, 0.00000000, 0.00000000, 0.00000000, 0.00000000, 0.00000000, 0.00000000, -0.11726830, -0.11635546, -0.03371164, 0.41660821, 0.15492317, 0.28551799, 0.52021903, 0.17388369, 0.18792203, 0.09705736, 0.30994743, 0.26157755, 0.13478480, 0.05592377, 0.13982172, 0.21451478, 0.26013675, 0.07647555, 0.17922123, 0.37236026, 0.32840580, 0.05287869, 0.13326511, 0.16977160, -0.10778499, -0.36582729, 0.36357793, 0.19423425, 0.09898828, 0.07643509, 0.18682142, 0.31752455, 0.23391823, 0.16761206, 0.19549046, -0.06225014, 0.04059954, 0.00155029, -0.01614938, -0.10348094, -0.02792365, 0.37948149, 0.36157268, 0.27527055, 0.38701865, 0.11989071, 0.08335997, -0.05063400, -0.15291239, -0.19414848, -0.15332884, -0.09411582, 0.01125595, 0.02741960, 0.27804354, -0.06906713, 0.45084003, 0.32162198, 0.09133480, -0.17339320, -0.07886890, -0.21699886, -0.10548103, -0.05320917, 0.00978511, 0.21281002, 0.09876005, 0.23042196, 0.07490589, 0.10437441, -0.17487231, 0.16350803, -0.15867898, -0.10136043, -0.17231552, -0.10076519, 0.05458338, 0.31303418, 0.16813262, -0.03909258, 0.20119722, 0.12229781, 0.43812004, 0.28490004, 0.05153633, -0.11564509, 0.18545789, 0.11755419, 0.09026463, 0.30595282, 0.34213379, 0.16095605, -0.01615684, -0.12259485, -0.00431749, -0.03257421, 0.29689628, -0.25105301, 0.28089505, 0.06252865, 0.34973440, -0.02236232, -0.04306887, -0.05843252, -0.13748862, -0.31351480, -0.10914128, 0.00188696, 0.07458916, 0.35119835, 0.11826301, -0.21951166, 0.23050691, 0.18242213, 0.16111688, 0.14547765, -0.30266002, -0.32277894, -0.16308577, -0.26915708, -0.26622510, 0.17476985, 0.13446951, -0.11027069, -0.04418047, -0.17691872, 0.29337099, 0.21891446, 0.28589797, -0.01329547, 0.10904092, 0.17644635, 0.08068359, 0.16566551, 0.37724069, 0.05994973, -0.20343857, -0.22853857, -0.47690696, -0.48276478, 0.14292951, 0.18629085, 0.14752331, 0.19286616, 0.25111061, 0.34582892, 0.31314525, 0.35404441, 0.24954036, -0.16233763, -0.30057022, -0.32924002, -0.52793258, 0.14911695, 0.09127395, 0.07768562, -0.21324489, -0.14680409, 0.02758000, 0.10604381, 0.28771585, -0.01972195, -0.12805016, -0.24567740, -0.33330244, -0.42442885, -0.59958577, -0.23290947, -0.04023553, 0.33738106, 0.23025529, -0.25463143, -0.53422689, -0.32890233, -0.43736634, -0.45233515, -0.40048763, -0.29461110, -0.50873047, -0.46224096, -0.42505512, 0.15123142, -0.10662299, -0.02056512, -0.03067955, -0.23652145, -0.09557708, -0.11856525, -0.02949767, -0.16814236, -0.33858362, -0.20337744, -0.12484078, -0.16089299, 0.03211494, -0.05282427, 0.00000000, 0.00000000, 0.00000000, 0.00000000, 0.00000000, 0.00000000, 0.00000000, 0.00000000, 0.00000000, 0.00000000, 0.00000000, 0.00000000, 0.00000000, 0.00000000, 0.00000000, 0.00000000, 0.00000000, 0.00000000, 0.00000000, 0.00000000, 0.00000000, 0.00000000, 0.00000000, 0.00000000, 0.00000000, 0.00000000, 0.00000000, 0.00000000, 0.00000000, 0.00000000, 0.00000000, 0.00000000, 0.00000000, 0.00000000, 0.00000000, 0.00000000, 0.00000000, 0.00000000, 0.00000000, 0.00000000, 0.00000000, 0.00000000, 0.00000000, 0.00000000, 0.00000000, 0.00000000, 0.00000000, 0.00000000, 0.00000000, 0.00000000, 0.00000000, 0.00000000, 0.00000000, 0.00000000, 0.00000000, 0.00000000, 0.00000000, 0.00000000, 0.00000000, 0.00000000, -0.10857876, 0.01568553, 0.12538473, -0.12139041, -0.33909738, 0.03130512, -0.09979993, -0.07685589, 0.17741753, -0.16499536, -0.07339232, -0.10139268, 0.11555110, 0.04551895, 0.09729873, 0.17949905, -0.13834855, -0.04347776, -0.37079513, -0.49505287, -0.55399358, -0.26508927, -0.31423438, -0.40694427, -0.39904237, -0.26427177, -0.02908282, -0.09599471, -0.09131889, -0.10816579, -0.03887897, -0.29161128, -0.23208202, 0.13433149, 0.24937260, 0.04592220, 0.06143808, 0.20359781, -0.09511673, 0.01084481, -0.05679769, 0.23424071, 0.34207171, 0.05253858, -0.21479893, -0.23989800, 0.02925264, 0.32345665, 0.02921800, 0.24878271, 0.24875000, 0.08133014, 0.13907334, 0.02951658, -0.08844318, 0.10361400, -0.25572056, -0.19502145, 0.07048145, 0.10150622, 0.11121383, 0.06505482, -0.06407513, -0.09351058, 0.14150141, 0.20863482, -0.03119911, -0.00122326, -0.07482857, 0.03025611, -0.33595666, -0.25633949, -0.29201066, 0.05961640, 0.04242554, 0.13178478, 0.03470463, -0.23382148, 0.12172394, 0.22485033, 0.09725921, -0.02590449, 0.16829300, -0.24249029, -0.29725853, -0.37372181, 0.08621309, 0.00443627, 0.22344878, 0.32566819, 0.19066885, -0.06182138, 0.01043402, 0.06283954, 0.26962295, 0.16074781, -0.05309973, -0.31020623, 0.09489445, -0.29977238, -0.06676789, 0.10301963, 0.03535572, 0.42382142, 0.34503016, -0.18204524, 0.18012455, 0.08785421, -0.07059747, -0.01261206, -0.04654976, -0.08959588, 0.11866853, -0.32201761, -0.11406826, -0.31888339, -0.09288759, -0.03044484, -0.00254051, 0.13071017, 0.05067050, 0.06708678, -0.22628400, -0.25766686, -0.26849362, -0.21006219, -0.13437043, -0.26291212, 0.04817837, -0.27484557, -0.36397365, -0.40998346, -0.26350862, 0.01643489, -0.03013181, -0.07844622, -0.24764964, -0.28040630, -0.21353291, -0.34460616, 0.29781440, 0.34064144, 0.08745006, -0.04131576, -0.14001934, -0.15444639, -0.22973128, -0.06828254, 0.04658663, -0.11270652, -0.44156894, -0.18797211, -0.23739336, 0.32736564, -0.06756636, 0.21115750, 0.07667501, 0.27847493, 0.09991588, 0.18242478, 0.10630702, -0.00758658, -0.03999403, -0.16158219, -0.33638662, -0.10681810, 0.01454723, -0.12714578, 0.15647526, 0.28203443, 0.22690380, 0.16451892, 0.13286205, 0.43279749, 0.23324062, 0.28208542, -0.06225250, 0.09739532, -0.22019072, 0.03267846, -0.21645872, 0.05118285, 0.06530462, -0.00681856, 0.17462306, 0.04360971, -0.26117831, -0.22713023, -0.24999300, -0.14211181, -0.30004275, -0.13971195, -0.29279304, -0.35417706, -0.09484686, 0.14951213, 0.00000000, 0.00000000, 0.00000000, 0.00000000, 0.00000000, 0.00000000, 0.00000000, 0.00000000, 0.00000000, 0.00000000, 0.00000000, 0.00000000, 0.00000000, 0.00000000, 0.00000000, 0.00000000, 0.00000000, 0.00000000, 0.00000000, 0.00000000, 0.00000000, 0.00000000, 0.00000000, 0.00000000, 0.00000000, 0.00000000, 0.00000000, 0.00000000, 0.00000000, 0.00000000, 0.00000000, 0.00000000, 0.00000000, 0.00000000, 0.00000000, 0.00000000, 0.00000000, 0.00000000, 0.00000000, 0.00000000, 0.00000000, 0.00000000, 0.00000000, 0.00000000, 0.00000000, 0.00000000, 0.00000000, 0.00000000, 0.00000000, 0.00000000, 0.00000000, 0.00000000, 0.00000000, 0.00000000, 0.00000000, 0.00000000, 0.00000000, 0.00000000, 0.00000000, 0.00000000, -0.07884511, 0.09679611, -0.11957068, -0.45297003, -0.24735795, -0.20117727, -0.32404843, -0.21292739, 0.23178965, -0.17741275, -0.32764027, 0.10310660, -0.09992336, -0.08491239, -0.04755083, -0.03220711, 0.18969102, 0.22501464, 0.28091681, 0.20925629, 0.25707540, 0.39942375, 0.32049042, 0.08929251, 0.07968459, -0.29928672, -0.10860395, -0.34088838, -0.05205151, 0.07019596, 0.28989714, 0.40356892, 0.13942878, -0.19257466, -0.26354963, 0.07113194, 0.24865419, 0.27625525, -0.02246638, -0.09818806, -0.15362704, 0.17156236, 0.42742261, 0.15918134, 0.48051220, 0.39844191, 0.32208887, 0.04521058, -0.44611722, -0.16466895, 0.39097241, 0.45056698, 0.02854984, -0.28591239, -0.26682803, -0.12173176, 0.15202662, 0.40865928, 0.05954286, 0.07249800, -0.07270027, -0.20118041, -0.32270670, 0.03788862, 0.18466510, -0.02480456, -0.41065612, -0.17880732, -0.93947405, -0.18257679, -0.06228632, 0.40638027, -0.19305226, -0.23671030, -0.26958761, -0.41785771, -0.22474144, 0.15057620, 0.10200552, -0.31152773, -0.39258188, -0.35487735, -0.31188375, -0.39130530, -0.11740028, -0.19657820, -0.51312405, -0.32856578, -0.32945943, -0.28956479, 0.06208661, 0.26699775, 0.13359085, -0.09575438, 0.02333351, -0.17266388, -0.01378880, 0.33471650, 0.23906265, 0.17220414, -0.06118390, -0.10750211, 0.01394681, 0.18317747, 0.34898961, 0.01083699, 0.09791502, 0.07112846, 0.23238029, 0.38323662, 0.44258255, 0.43877414, 0.29859486, 0.27357417, 0.27829126, 0.40129337, 0.20346454, -0.08306364, 0.02691990, 0.13133663, -0.07149545, 0.08953176, 0.12553640, 0.38316163, 0.31873193, 0.02547593, 0.03861595, 0.25893953, 0.53464168, 0.03783764, -0.11155811, -0.13546970, -0.15474953, 0.24068882, 0.16431648, 0.00278830, -0.16959420, 0.19580303, -0.23077029, -0.03880269, -0.03310374, -0.00803547, 0.12996890, 0.02490137, 0.00620944, -0.17704330, -0.03014110, 0.08135515, 0.33435696, 0.03265068, 0.17497587, 0.11597706, -0.33192977, 0.14230031, -0.11775637, 0.13674007, -0.27947128, -0.03487310, 0.03831347, -0.00607416, 0.04812793, 0.00206711, 0.17288235, 0.03624227, 0.05206155, 0.00756373, -0.15673423, 0.12013520, -0.06395277, 0.21322364, -0.01569458, 0.07824448, -0.06038208, -0.03153248, 0.02636933, 0.12041721, -0.06339207, 0.11800379, 0.01254449, -0.10180800, 0.02811108, 0.20649725, -0.10424237, 0.09715588, 0.10779540, 0.12569992, -0.23880358, -0.12563074, 0.08942923, 0.01867226, 0.06272195, 0.08185120, -0.11855888, -0.15050143, -0.10003935, -0.07936392, 0.00000000, 0.00000000, 0.00000000, 0.00000000, 0.00000000, 0.00000000, 0.00000000, 0.00000000, 0.00000000, 0.00000000, 0.00000000, 0.00000000, 0.00000000, 0.00000000, 0.00000000, 0.00000000, 0.00000000, 0.00000000, 0.00000000, 0.00000000, 0.00000000, 0.00000000, 0.00000000, 0.00000000, 0.00000000, 0.00000000, 0.00000000, 0.00000000, 0.00000000, 0.00000000, 0.00000000, 0.00000000, 0.00000000, 0.00000000, 0.00000000, 0.00000000, 0.00000000, 0.00000000, 0.00000000, 0.00000000, 0.00000000, 0.00000000, 0.00000000, 0.00000000, 0.00000000, 0.00000000, 0.00000000, 0.00000000, 0.00000000, 0.00000000, 0.00000000, 0.00000000, 0.00000000, 0.00000000, 0.00000000, 0.00000000, 0.00000000, 0.00000000, 0.00000000, 0.00000000, 0.05486585, -0.12064794, -0.15182635, 0.08128959, -0.10779567, -0.09882753, 0.11796096, -0.03269795, 0.05322866, -0.14892291, -0.02510247, 0.02100151, 0.16019024, 0.13671206, -0.10217835, -0.08574820, 0.12729701, -0.00237073, 0.11550716, 0.39999959, 0.11637774, 0.06857638, -0.07786771, 0.12852347, -0.12419871, 0.00751881, 0.35007742, -0.10747433, -0.01581359, 0.34985349, 0.01355956, 0.04797158, 0.15590712, 0.11283375, 0.13551432, 0.21740471, 0.16342750, 0.14216779, 0.26815012, 0.27896568, 0.14726678, 0.19731890, 0.13620172, 0.21132302, 0.13675524, 0.07581118, 0.04809983, 0.18147041, 0.36640060, 0.11491542, 0.05521920, -0.05768193, -0.00717088, -0.06624082, 0.07224589, 0.18129344, -0.15831906, 0.19820793, 0.21331948, 0.08905986, 0.06969264, 0.02485729, 0.03614296, 0.20745672, -0.05584815, -0.13240741, 0.10244279, -0.03468469, 0.21941100, 0.10234894, -0.06328023, 0.25165743, -0.03175681, 0.12242313, 0.04031090, -0.00364091, -0.02228366, -0.04055151, 0.00380236, 0.05906748, 0.04037358, -0.22049597, 0.12100498, 0.09658219, -0.17381659, -0.16506621, -0.27322155, -0.08402340, -0.16894184, -0.18714535, -0.09326875, -0.04027803, -0.28928959, -0.11475135, -0.05293012, -0.32382926, -0.36307341, -0.12893948, -0.03287006, -0.08185213, -0.41747364, -0.25040290, -0.09503530, -0.35871521, 0.09265371, 0.06064351, -0.38485876, -0.38455477, -0.27139017, -0.13556418, -0.18934983, 0.22362873, 0.02854077, -0.10991349, -0.28772017, -0.10091766, -0.25359002, -0.18894875, 0.25251353, -0.14465138, -0.48793763, -0.23589627, -0.01307775, -0.10596630, -0.04547805, -0.06388731, -0.10331494, 0.27837747, -0.09236804, -0.20441976, -0.20510229, -0.35935122, -0.10971154, -0.06642209, 0.02549280, 0.08257582, 0.17720008, 0.23781958, 0.14277279, 0.07274789, -0.03800166, 0.08239619, 0.20016503, 0.27805024, 0.05443682, 0.09476181, 0.18646222, 0.30670071, 0.56148916, 0.56957024, 0.43351972, 0.29063147, 0.12403147, -0.04458889, 0.04782911, 0.68944693, 0.25920525, 0.34970853, 0.45017314, 0.38570583, 0.53264868, 0.62514013, 0.37279877, 0.64213550, 0.46369755, 0.11509871, 0.19069035, -0.01340032, -0.04839116, 0.04088454, 0.00867831, 0.37823644, 0.42355883, 0.30731094, 0.15471853, 0.26135471, 0.32862702, 0.31507358, -0.04276654, 0.12375449, 0.26608020, 0.36756730, 0.02013148, -0.10973584, 0.02150571, -0.01342080, -0.05621995, -0.01551983, 0.10364821, -0.17780037, 0.02542964, -0.17328180, -0.27452359, -0.16733068, -0.09643541, 0.11181085, 0.00000000, 0.00000000, 0.00000000, 0.00000000, 0.00000000, 0.00000000, 0.00000000, 0.00000000, 0.00000000, 0.00000000, 0.00000000, 0.00000000, 0.00000000, 0.00000000, 0.00000000, 0.00000000, 0.00000000, 0.00000000, 0.00000000, 0.00000000, 0.00000000, 0.00000000, 0.00000000, 0.00000000, 0.00000000, 0.00000000, 0.00000000, 0.00000000, 0.00000000, 0.00000000, 0.00000000, 0.00000000, 0.00000000, 0.00000000, 0.00000000, 0.00000000, 0.00000000, 0.00000000, 0.00000000, 0.00000000, 0.00000000, 0.00000000, 0.00000000, 0.00000000, 0.00000000, 0.00000000, 0.00000000, 0.00000000, 0.00000000, 0.00000000, 0.00000000, 0.00000000, 0.00000000, 0.00000000, 0.00000000, 0.00000000, 0.00000000, 0.00000000, 0.00000000, 0.00000000, 0.00430153, -0.15210846, 0.02899286, -0.15629803, -0.07766996, -0.04253341, -0.19141164, 0.08491650, -0.22087047, -0.18644354, -0.26425147, -0.05853933, -0.05165279, -0.02708526, 0.13255222, -0.19479072, -0.22734709, 0.09373618, 0.24164206, 0.22334048, 0.27598462, 0.03416954, 0.06010116, -0.14415643, -0.31077734, -0.26548758, -0.23036994, -0.27707663, -0.03873473, -0.07836860, 0.10914671, -0.12319493, -0.06231815, 0.10347184, 0.18856864, 0.38014314, 0.03130680, -0.04526206, -0.18333864, -0.31797639, -0.30971444, -0.16575378, 0.39721927, 0.11793535, 0.16017644, 0.14682081, 0.21719538, 0.03101537, 0.30184254, 0.35292378, 0.36960682, 0.29513407, 0.14010505, -0.12834534, -0.40963584, 0.12023551, 0.12330166, 0.23943876, 0.19655973, 0.18713833, -0.12484147, -0.09106471, 0.05699614, 0.26841849, 0.40435556, 0.17356712, 0.25145262, -0.08020674, -0.51424789, 0.15843052, 0.25724941, 0.49190256, 0.03717667, -0.11576574, -0.08979329, -0.21839391, -0.24103844, 0.04866791, 0.27658227, 0.47161347, 0.18913190, -0.17678075, -0.27214432, 0.14708598, 0.11153917, -0.11768222, -0.25807205, -0.17914012, -0.32569462, -0.12408403, -0.22085188, 0.10724144, 0.23100322, 0.22928342, -0.14159979, -0.33974919, -0.25819719, -0.06537527, -0.01500108, 0.26489067, -0.07841200, -0.07636851, -0.21247970, -0.24765262, -0.44954816, 0.23269816, 0.12722242, 0.04586818, -0.07287062, -0.06422730, -0.03834924, 0.32998267, 0.30280089, 0.07266820, -0.25729185, 0.01914342, -0.19540584, 0.00295044, -0.20367917, 0.13452977, -0.08082811, -0.08567741, -0.20305322, 0.11126447, 0.17374636, 0.36603281, 0.53108150, 0.19527926, -0.11061736, 0.12378734, 0.00488024, -0.14568284, 0.04414280, -0.04645578, -0.06026679, -0.11580966, -0.06537817, 0.08176911, 0.03836214, 0.23308127, 0.16476594, 0.25946629, 0.14067332, 0.12050379, 0.19804975, -0.17937480, 0.07152749, -0.20041588, -0.08275537, -0.21752305, 0.13787493, -0.08118885, 0.16345917, -0.23166950, -0.08616330, 0.15356787, 0.38981059, 0.39989427, 0.30159655, -0.00121925, 0.03404116, 0.01960611, -0.03070975, -0.03751907, -0.11691722, -0.24461953, 0.22347003, -0.02548600, 0.12406503, 0.42384189, 0.40622818, 0.37816873, 0.10828482, 0.10931387, 0.08690122, -0.02130369, 0.09612369, -0.00305981, -0.19840291, -0.12027180, -0.23583694, 0.14189480, 0.13666080, 0.04956646, 0.12603767, 0.44646975, 0.48463267, 0.31936434, 0.23105602, -0.12253263, 0.43594435, 0.30987340, 0.20330644, -0.10863552, 0.16757728, -0.03465064, 0.00000000, 0.00000000, 0.00000000, 0.00000000, 0.00000000, 0.00000000, 0.00000000, 0.00000000, 0.00000000, 0.00000000, 0.00000000, 0.00000000, 0.00000000, 0.00000000, 0.00000000, 0.00000000, 0.00000000, 0.00000000, 0.00000000, 0.00000000, 0.00000000, 0.00000000, 0.00000000, 0.00000000, 0.00000000, 0.00000000, 0.00000000, 0.00000000, 0.00000000, 0.00000000, 0.00000000, 0.00000000, 0.00000000, 0.00000000, 0.00000000, 0.00000000, 0.00000000, 0.00000000, 0.00000000, 0.00000000, 0.00000000, 0.00000000, 0.00000000, 0.00000000, 0.00000000, 0.00000000, 0.00000000, 0.00000000, 0.00000000, 0.00000000, 0.00000000, 0.00000000, 0.00000000, 0.00000000, 0.00000000, 0.00000000, 0.00000000, 0.00000000, 0.00000000, 0.00000000, 0.01879446, -0.15170076, 0.12740003, 0.08773105, 0.38880208, 0.00063980, 0.06332389, 0.01532497, -0.17078204, 0.37486911, 0.17174819, 0.29261193, 0.03055251, -0.11712114, 0.06335671, -0.11543314, 0.39426979, 0.10016406, 0.19424726, 0.01642640, 0.04378504, 0.19026212, 0.14704965, 0.21663257, 0.20843044, 0.13517766, 0.09353076, -0.08114583, -0.07527336, -0.26333112, 0.30501464, 0.31307518, -0.02541689, 0.08451234, 0.10914069, 0.03582140, 0.03673347, -0.52538294, -0.52951121, -0.89292204, -0.59139323, -0.15070853, -0.35481122, 0.02937933, 0.15804343, 0.23371348, 0.09336861, -0.26238284, -0.14412193, -0.09602863, -0.45844817, -0.46822733, -0.35863221, -0.39312813, -0.26035485, -0.05579672, 0.16479971, 0.03541061, 0.29265878, 0.18310760, 0.01595227, 0.04663243, 0.25672171, -0.02833321, -0.23320033, -0.27966794, -0.06992966, 0.08735642, 0.23747432, -0.07410929, 0.20143078, 0.03060716, 0.00129175, 0.15617037, 0.12781014, 0.16873452, 0.35800731, 0.17513035, 0.16081066, 0.22325486, 0.25700733, 0.32728893, 0.04834201, -0.02812742, 0.22119769, 0.16595095, -0.01018694, 0.14475709, 0.11075281, 0.01095187, -0.04283808, 0.08306845, 0.18546015, -0.15204553, 0.19269285, 0.21876898, 0.04413874, 0.15604647, 0.02357278, 0.15380231, 0.00195275, -0.07284500, 0.09042738, -0.17621042, -0.58657277, 0.30765322, 0.03385174, 0.08145241, 0.13763157, 0.39471376, 0.04890387, 0.01384414, -0.06015229, 0.17582539, 0.11546122, 0.01114580, -0.00738588, -0.45855141, -0.19093619, 0.25880828, 0.12952653, 0.09862608, 0.07038739, 0.07640446, -0.12934442, -0.35933784, 0.36313656, 0.10166545, -0.16149597, 0.10106795, -0.27598870, -0.37725145, -0.14103961, 0.43240494, 0.27375576, -0.03557742, -0.15519293, -0.07941421, -0.07565144, 0.31698781, -0.11356302, -0.36273581, -0.11702947, 0.07385953, -0.18187656, -0.13777605, 0.05178745, 0.39381024, 0.16024439, -0.12604126, -0.24635896, -0.25231433, 0.04601065, -0.15616272, -0.11217189, -0.16105825, -0.21152064, 0.07344574, 0.08922482, -0.00193194, -0.02779447, 0.10243493, 0.04995335, -0.18568081, -0.27381897, -0.67610723, -0.26523897, 0.25490436, 0.14440624, 0.02147578, -0.09706491, 0.04690376, -0.05584033, 0.03810683, -0.04682703, 0.07985866, 0.11680455, -0.16757441, 0.20629075, -0.21362641, 0.03447817, 0.15643676, 0.10220785, -0.13215640, -0.08479606, 0.00127385, 0.16060962, -0.02559055, 0.20248182, 0.23319115, 0.15852851, 0.39087996, 0.13128403, 0.24367598, 0.15182388, -0.00163494, 0.00000000, 0.00000000, 0.00000000, 0.00000000, 0.00000000, 0.00000000, 0.00000000, 0.00000000, 0.00000000, 0.00000000, 0.00000000, 0.00000000, 0.00000000, 0.00000000, 0.00000000, 0.00000000, 0.00000000, 0.00000000, 0.00000000, 0.00000000, 0.00000000, 0.00000000, 0.00000000, 0.00000000, 0.00000000, 0.00000000, 0.00000000, 0.00000000, 0.00000000, 0.00000000, 0.00000000, 0.00000000, 0.00000000, 0.00000000, 0.00000000, 0.00000000, 0.00000000, 0.00000000, 0.00000000, 0.00000000, 0.00000000, 0.00000000, 0.00000000, 0.00000000, 0.00000000, 0.00000000, 0.00000000, 0.00000000, 0.00000000, 0.00000000, 0.00000000, 0.00000000, 0.00000000, 0.00000000, 0.00000000, 0.00000000, 0.00000000, 0.00000000, 0.00000000, 0.00000000, -0.01063696, -0.10975100, -0.02918833, -0.01962176, 0.09744375, -0.10566623, -0.01996686, 0.18640563, -0.59162384, -0.09952779, 0.23445717, 0.09841048, 0.07146588, 0.03876312, -0.06212247, 0.15482616, 0.36909011, 0.02084763, -0.26529935, 0.15175547, -0.28288025, -0.06021428, -0.07868806, -0.18692519, -0.21396282, -0.19869301, -0.00451818, -0.23987037, -0.05025885, 0.33598295, 0.27588743, -0.24558657, -0.45267150, -0.24368399, 0.17004052, 0.00759028, -0.14863092, -0.23612028, 0.00373502, -0.29620370, 0.00006419, -0.19732650, -0.35029802, 0.39825290, 0.19624668, -0.23203163, -0.18995233, -0.32229596, -0.21517755, -0.28586844, -0.10040417, -0.03231284, 0.10486159, -0.01225324, 0.05763444, 0.28706595, -0.25760165, -0.35252860, -0.07189665, -0.21485297, -0.40242639, -0.46242258, 0.27724624, 0.14982836, 0.30920860, 0.33220604, 0.25460240, 0.28335461, 0.21384710, 0.05401267, 0.18872865, -0.35259452, -0.20072348, -0.38801029, -0.54998970, -0.13648042, 0.36705992, 0.54268932, 0.36792335, -0.01708737, 0.03785111, 0.37955409, 0.66969675, 0.44198620, 0.08323018, 0.06768214, -0.02188826, -0.26562858, -0.22961144, -0.25528947, 0.38264543, 0.40916559, -0.19700417, -0.29902497, -0.42243028, -0.27710485, 0.02112539, 0.06529885, 0.34724185, 0.03448360, 0.17876413, -0.29661366, -0.39282864, -0.25486436, 0.37288901, 0.14584458, -0.14370497, -0.50080431, -0.37916154, -0.25464416, -0.20025682, -0.14241062, 0.20057036, 0.19407481, 0.27876446, 0.25354713, -0.22675261, -0.29421490, -0.04361649, 0.30425954, 0.25793433, -0.21728863, -0.27792561, -0.34752175, 0.18637368, -0.04532412, -0.23586147, -0.37715340, 0.15313645, 0.25500578, 0.02856000, -0.27516457, 0.30153605, 0.36320153, 0.17268161, -0.16902485, -0.65879071, -0.27345645, 0.27610907, 0.30231795, -0.11868491, -0.38213333, 0.03959008, 0.30057213, 0.18236096, 0.11230061, 0.06958137, 0.01684413, -0.20550023, -0.24168165, -0.52832466, -0.22958840, -0.18210049, 0.04966865, -0.10110980, -0.04144055, -0.01530838, 0.13393165, 0.23780419, 0.16724387, 0.05808271, 0.04162953, -0.20753831, -0.63943660, -0.80318397, -0.23840834, 0.00312007, 0.18376736, 0.11193599, -0.06319753, 0.09674228, 0.04572779, 0.30336922, 0.20678328, -0.02422942, 0.16400930, -0.23622218, -0.24907129, -0.17143784, 0.29166064, 0.19229510, 0.12462486, -0.06644365, 0.11934020, -0.20107563, -0.30938938, -0.43706834, -0.34928894, -0.38880685, -0.35704309, 0.10828876, -0.13778505, 0.03036290, -0.27043593, -0.02962817, -0.04571327, 0.00000000, 0.00000000, 0.00000000, 0.00000000, 0.00000000, 0.00000000, 0.00000000, 0.00000000, 0.00000000, 0.00000000, 0.00000000, 0.00000000, 0.00000000, 0.00000000, 0.00000000, 0.00000000, 0.00000000, 0.00000000, 0.00000000, 0.00000000, 0.00000000, 0.00000000, 0.00000000, 0.00000000, 0.00000000, 0.00000000, 0.00000000, 0.00000000, 0.00000000, 0.00000000, 0.00000000, 0.00000000, 0.00000000, 0.00000000, 0.00000000, 0.00000000, 0.00000000, 0.00000000, 0.00000000, 0.00000000, 0.00000000, 0.00000000, 0.00000000, 0.00000000, 0.00000000, 0.00000000, 0.00000000, 0.00000000, 0.00000000, 0.00000000, 0.00000000, 0.00000000, 0.00000000, 0.00000000, 0.00000000, 0.00000000, 0.00000000, 0.00000000, 0.00000000, 0.00000000, 0.11743955, -0.16013969, -0.06075355, -0.07190245, -0.13962293, 0.04045551, -0.02495901, -0.30978295, 0.28948307, -0.03197581, -0.39479309, -0.12621717, -0.05393011, 0.01642305, -0.02727748, -0.13885795, -0.22890364, 0.11688969, 0.17588393, 0.46930787, 0.07298733, 0.01067821, -0.00732711, -0.17542593, -0.15777129, -0.29735956, 0.11913171, 0.15160485, 0.03721099, -0.17344844, -0.04242323, 0.26868516, 0.05923692, 0.01079556, 0.18837959, 0.05362821, 0.20473558, 0.24023773, -0.03634030, -0.04591724, 0.22096515, 0.08925045, -0.06956412, 0.16131046, -0.06383043, 0.00980496, -0.17229296, -0.10096757, -0.09653474, -0.01239177, -0.13801220, -0.09742242, -0.09614380, -0.01614189, -0.01710376, 0.19702552, -0.02642582, 0.11392348, 0.02407297, -0.00096702, -0.15638871, -0.08645434, 0.15973875, -0.08575615, 0.11203404, 0.12973265, 0.08814051, 0.03016768, 0.06341486, 0.11592674, -0.27900264, 0.05169928, 0.21853891, -0.16007516, -0.19839427, -0.05053855, -0.15471581, -0.58001107, -0.22411515, 0.06874733, 0.09304235, -0.09288330, 0.27088407, -0.02326598, -0.02938705, -0.15464135, -0.01178018, 0.14131488, 0.01536065, -0.09332733, -0.17853616, -0.49635130, -0.24424931, -0.17394239, -0.09968680, -0.12524104, -0.04641925, 0.36432070, -0.11506926, -0.10314880, 0.20564474, 0.27091563, 0.18433024, -0.17042315, 0.12835544, -0.22076897, -0.07024652, 0.06481191, -0.02884727, 0.22960214, 0.28321800, 0.39856246, -0.19833632, 0.22325234, 0.25977477, 0.35291135, 0.32444456, 0.04521388, 0.18707730, 0.17018925, 0.23156556, 0.17827867, 0.16376816, 0.27129585, 0.17393798, 0.33208004, -0.33356276, 0.48161501, 0.20658338, 0.35033631, 0.23752312, 0.22229613, 0.20909163, 0.27346453, 0.50306070, 0.13712239, -0.01165377, 0.19399683, 0.01252645, 0.20496793, -0.26870823, 0.26951882, -0.12285843, 0.01755569, 0.08959699, 0.27517995, 0.00660798, 0.23522405, 0.10390569, -0.09183750, -0.08250129, 0.03684487, 0.13753213, -0.12114273, -0.04719342, 0.28651258, -0.20599030, -0.01940817, -0.00963468, 0.05550325, 0.01162195, -0.30661562, -0.05929594, 0.01203467, 0.17925110, 0.26301172, 0.30335739, -0.41094124, -0.00750934, -0.33063611, -0.17759083, -0.44441137, -0.29977867, -0.28496790, -0.28516763, -0.21079229, -0.10235678, -0.08855326, -0.03571550, 0.19189683, 0.42952344, 0.36468273, -0.07912122, 0.11776711, -0.06653509, -0.14274716, -0.48977467, -0.17116989, -0.08425899, -0.18008444, -0.38091233, -0.23588240, -0.41334081, -0.16143189, -0.02639322, 0.14301260, 0.00000000, 0.00000000, 0.00000000, 0.00000000, 0.00000000, 0.00000000, 0.00000000, 0.00000000, 0.00000000, 0.00000000, 0.00000000, 0.00000000, 0.00000000, 0.00000000, 0.00000000, 0.00000000, 0.00000000, 0.00000000, 0.00000000, 0.00000000, 0.00000000, 0.00000000, 0.00000000, 0.00000000, 0.00000000, 0.00000000, 0.00000000, 0.00000000, 0.00000000, 0.00000000, 0.00000000, 0.00000000, 0.00000000, 0.00000000, 0.00000000, 0.00000000, 0.00000000, 0.00000000, 0.00000000, 0.00000000, 0.00000000, 0.00000000, 0.00000000, 0.00000000, 0.00000000, 0.00000000, 0.00000000, 0.00000000, 0.00000000, 0.00000000, 0.00000000, 0.00000000, 0.00000000, 0.00000000, 0.00000000, 0.00000000, 0.00000000, 0.00000000, 0.00000000, 0.00000000, -0.11355713, -0.14203236, 0.15038444, -0.05823581, -0.02117088, -0.09448272, -0.07650982, 0.10364538, -0.16187249, -0.23566017, 0.00576521, -0.15612398, 0.09326430, -0.14688049, -0.14242724, -0.25279167, -0.04695759, -0.25060591, -0.10379773, -0.32016587, -0.22892004, -0.13968937, -0.42165571, -0.43139637, -0.21166445, -0.20019527, 0.08073445, -0.29782400, -0.10365228, -0.00079648, 0.19154763, -0.06929415, -0.09575174, 0.07423857, 0.01239285, -0.08842977, -0.25307101, -0.27869880, -0.26630014, -0.25549716, -0.10508988, 0.35907370, 0.16153340, -0.32805708, -0.32785723, 0.08577670, -0.10938223, -0.03547589, 0.34063125, 0.35589302, 0.36141080, 0.02490184, -0.07837505, -0.20167097, 0.01314155, 0.28332391, -0.44048584, -0.37342140, 0.03989783, 0.02619342, 0.17887822, 0.13255024, 0.24915110, 0.07093552, -0.09630292, 0.03990133, -0.06331418, 0.14205334, 0.40515041, 0.51016468, -0.27105868, -0.23370011, 0.06158254, 0.16822425, 0.21652274, 0.18874325, -0.00349746, 0.07319681, -0.19232365, -0.10004366, -0.00288062, 0.36024407, 0.54043204, 0.50695980, -0.37817451, 0.02616076, 0.28681722, 0.28142524, 0.24514128, 0.23409586, 0.50264353, 0.44024235, -0.21349379, -0.19472633, -0.13860883, 0.16852403, 0.04172770, 0.37851802, 0.11738209, -0.39710388, -0.14510682, -0.14478667, 0.11462622, 0.11047854, 0.40955654, 0.30272752, 0.00703782, -0.25488243, -0.28069803, -0.29728207, -0.02470499, -0.00956821, 0.09087614, 0.03017244, -0.17050949, -0.27858734, -0.15769054, -0.03715853, 0.04295035, 0.04498377, 0.05451787, -0.09748088, -0.27219614, 0.08359541, 0.14545102, -0.28785253, -0.42249852, -0.39814898, 0.12313338, 0.03617157, -0.14922376, -0.30215943, -0.18948705, 0.02982950, -0.11344334, -0.04620093, 0.01622370, 0.05331172, 0.19673014, -0.39785036, -0.02737405, -0.07050706, 0.03452366, 0.08703794, 0.07186811, -0.21293023, -0.26757637, -0.27717951, 0.19225192, 0.03937069, 0.17240399, 0.05743106, 0.14867046, -0.34758806, 0.08993299, 0.38167366, 0.18208620, -0.00846718, -0.00247172, -0.02592262, -0.14037789, 0.08731215, -0.04830847, 0.03786778, 0.09793902, 0.19579275, 0.38250682, 0.26351407, 0.04937130, -0.15696685, -0.13093613, 0.03812968, 0.08070311, 0.01678216, 0.14882846, 0.05109195, -0.08345589, 0.21722956, 0.29505864, 0.45612308, 0.16092795, -0.27490383, 0.08191492, 0.03915487, 0.18351825, 0.02635106, 0.05695818, 0.16528518, 0.29079205, 0.03063127, 0.13557927, -0.03010387, 0.16063856, -0.03725782, -0.13756290, 0.11387943, 0.00000000, 0.00000000, 0.00000000, 0.00000000, 0.00000000, 0.00000000, 0.00000000, 0.00000000, 0.00000000, 0.00000000, 0.00000000, 0.00000000, 0.00000000, 0.00000000, 0.00000000, 0.00000000, 0.00000000, 0.00000000, 0.00000000, 0.00000000, 0.00000000, 0.00000000, 0.00000000, 0.00000000, 0.00000000, 0.00000000, 0.00000000, 0.00000000, 0.00000000, 0.00000000, 0.00000000, 0.00000000, 0.00000000, 0.00000000, 0.00000000, 0.00000000, 0.00000000, 0.00000000, 0.00000000, 0.00000000, 0.00000000, 0.00000000, 0.00000000, 0.00000000, 0.00000000, 0.00000000, 0.00000000, 0.00000000, 0.00000000, 0.00000000, 0.00000000, 0.00000000, 0.00000000, 0.00000000, 0.00000000, 0.00000000, 0.00000000, 0.00000000, 0.00000000, 0.00000000, 0.06328915, -0.01330873, 0.05749157, -0.17648342, -0.46089721, -0.26678681, -0.28574181, -0.25153920, -0.39118198, -0.33339390, -0.40279678, -0.28494543, 0.05895610, -0.08471916, -0.03445613, -0.40233234, 0.23632598, -0.35193276, -0.83711165, -0.94085544, -0.61218876, -0.37469769, -0.13593481, 0.44442758, 0.17852795, -0.25979018, -0.09351175, -0.11302478, -0.00733034, 0.11489563, -0.53337562, -0.32886240, -0.33765024, -0.28769916, -0.45201135, -0.80634278, -0.68067420, -0.63227421, -0.40584785, -0.48130131, -0.32383764, 0.28560835, -0.17609827, 0.13900319, -0.22100924, -0.08581674, 0.15224336, 0.05135106, 0.03080253, 0.22199199, 0.16396698, 0.18153103, 0.14726342, 0.33243740, 0.14703758, -0.07792031, 0.02356762, 0.02578024, -0.15027507, -0.01209256, 0.18413761, 0.22403441, 0.11094936, 0.18300836, 0.40444165, 0.41707641, 0.32632631, 0.30435178, 0.62112314, 0.39706564, 0.13822901, -0.03810396, 0.10991501, 0.00662203, 0.49322748, 0.43641207, 0.24435616, 0.09538738, 0.04007775, -0.08247982, -0.15203552, 0.18418950, 0.22496502, 0.30031165, 0.16100645, 0.14173807, 0.09539559, 0.19855508, 0.55064893, 0.44840932, -0.15262698, -0.01217103, 0.01183929, -0.25720099, -0.45926484, -0.11578397, -0.23879865, 0.58519644, 0.13400170, -0.00576803, 0.16973305, 0.03505904, 0.26841471, -0.03817995, -0.08749024, -0.11125064, 0.13229732, 0.19433662, -0.07939727, -0.13318811, -0.07065810, -0.23347045, -0.32317224, -0.10417961, -0.07863968, 0.20056768, -0.25092813, 0.04478212, 0.06069280, 0.02821207, 0.02956616, 0.20761047, -0.01666220, -0.05499980, -0.10755345, -0.12409155, 0.21709248, -0.32988673, -0.16847517, -0.01286944, -0.03322666, -0.26086944, 0.09376728, -0.07295651, -0.06868214, -0.10249354, 0.08009979, -0.21295981, 0.02830988, 0.23535378, -0.09273554, -0.62315899, -0.57311994, -0.37444264, -0.18818378, -0.11722059, -0.14603244, -0.15598987, -0.07176648, -0.27323559, -0.50417662, -0.13841458, 0.27623239, -0.31400937, 0.02851847, -0.15769626, -0.31914553, -0.27683848, -0.25926965, -0.11576999, 0.02903841, -0.11391787, -0.15344115, -0.19558413, -0.08132539, -0.03931452, 0.45964372, 0.10087716, -0.08869186, 0.02640094, 0.06557486, -0.21059927, -0.17365572, 0.03350074, -0.06208140, 0.08671838, 0.24406284, 0.01529826, -0.04483255, 0.23205534, -0.05337444, -0.06753285, 0.12092219, -0.03552870, -0.14402549, 0.21991318, 0.38129970, 0.08536375, 0.33445120, 0.31893027, 0.50813919, 0.49496770, 0.55299926, 0.44527280, 0.10008145, 0.05443217, 0.00000000, 0.00000000, 0.00000000, 0.00000000, 0.00000000, 0.00000000, 0.00000000, 0.00000000, 0.00000000, 0.00000000, 0.00000000, 0.00000000, 0.00000000, 0.00000000, 0.00000000, 0.00000000, 0.00000000, 0.00000000, 0.00000000, 0.00000000, 0.00000000, 0.00000000, 0.00000000, 0.00000000, 0.00000000, 0.00000000, 0.00000000, 0.00000000, 0.00000000, 0.00000000, 0.00000000, 0.00000000, 0.00000000, 0.00000000, 0.00000000, 0.00000000, 0.00000000, 0.00000000, 0.00000000, 0.00000000, 0.00000000, 0.00000000, 0.00000000, 0.00000000, 0.00000000, 0.00000000, 0.00000000, 0.00000000, 0.00000000, 0.00000000, 0.00000000, 0.00000000, 0.00000000, 0.00000000, 0.00000000, 0.00000000, 0.00000000, 0.00000000, 0.00000000, 0.00000000, 0.10042448, -0.03621194, 0.12796248, 0.20477802, 0.09489872, -0.14810167, -0.18648957, 0.06176506, -0.44262201, 0.18615675, 0.42342794, 0.11609660, -0.11488408, 0.05111557, -0.04716863, -0.06745643, 0.33727241, 0.14909750, 0.03265471, -0.23787834, 0.11226719, -0.30973524, -0.06379317, 0.02004027, -0.03897285, 0.07550450, 0.06692751, 0.20747095, -0.03256616, 0.29316077, -0.10220633, -0.01125552, 0.02371885, -0.18150181, -0.09516573, 0.12331811, 0.08156465, 0.40106985, 0.27605343, 0.15111573, 0.39553759, -0.13751344, -0.09778928, -0.06574322, -0.23835677, -0.38797235, -0.42281327, -0.24716911, -0.25240514, -0.18412964, -0.13721265, 0.09270551, 0.28265342, 0.30851427, 0.38718829, 0.27476591, -0.55863625, -0.34670559, -0.41482934, -0.30945477, -0.11969668, 0.07010929, 0.07288758, -0.11910705, -0.28120565, -0.26182723, -0.31637865, -0.11912886, -0.22024000, 0.03663784, -0.15128386, -0.42794439, -0.32638019, -0.07365933, 0.02494993, 0.26422429, 0.10745515, -0.22365196, -0.19235180, -0.41526756, -0.36186227, -0.56058198, -0.41222528, -0.34971690, -0.09489878, -0.05227363, -0.07069115, 0.15685038, 0.30400369, 0.23202284, 0.07506599, 0.28560808, 0.32194203, -0.02504962, -0.28522137, -0.04157742, -0.24390358, -0.51926422, 0.09749870, -0.00469025, -0.01399719, 0.36606184, 0.21191941, 0.49019951, 0.28154200, 0.36765370, 0.37348372, 0.02796954, 0.08262200, 0.04542237, 0.14696352, -0.01433488, -0.02622468, 0.12570934, -0.18205070, 0.13886832, 0.12140252, 0.08299293, 0.37929314, 0.38481399, -0.03243488, -0.01029474, 0.04913995, 0.05609189, 0.18883500, -0.04956145, -0.34216937, -0.33455664, -0.18089367, -0.13601804, -0.12356350, 0.06701409, 0.09471972, 0.13587809, -0.17989881, -0.11668070, 0.04263442, -0.08090849, 0.12669589, 0.24438719, -0.09604690, -0.29464149, -0.24524294, -0.30258986, -0.29294297, -0.15054597, 0.01717455, -0.03943273, -0.02067657, 0.08166157, -0.20321842, -0.29933226, 0.26832354, -0.11676344, 0.14598189, -0.08705515, -0.24781543, -0.34079310, -0.20592922, -0.20476708, -0.28998464, -0.17475413, 0.15039673, 0.21799140, 0.22268924, -0.05478451, -0.05824145, 0.23734148, 0.03066339, -0.38265890, -0.17161898, -0.21436103, -0.20196150, -0.18301964, -0.05228224, -0.00443972, 0.16091743, 0.08538882, -0.03201687, 0.18939903, 0.30549088, -0.13332529, 0.13751025, 0.14619769, -0.26742747, -0.38284853, -0.25642455, -0.17014600, -0.20434541, -0.09681993, -0.08560889, -0.14852013, -0.43643463, -0.23073894, 0.07067475, -0.14526533, 0.00000000, 0.00000000, 0.00000000, 0.00000000, 0.00000000, 0.00000000, 0.00000000, 0.00000000, 0.00000000, 0.00000000, 0.00000000, 0.00000000, 0.00000000, 0.00000000, 0.00000000, 0.00000000, 0.00000000, 0.00000000, 0.00000000, 0.00000000, 0.00000000, 0.00000000, 0.00000000, 0.00000000, 0.00000000, 0.00000000, 0.00000000, 0.00000000, 0.00000000, 0.00000000, 0.00000000, 0.00000000, 0.00000000, 0.00000000, 0.00000000, 0.00000000, 0.00000000, 0.00000000, 0.00000000, 0.00000000, 0.00000000, 0.00000000, 0.00000000, 0.00000000, 0.00000000, 0.00000000, 0.00000000, 0.00000000, 0.00000000, 0.00000000, 0.00000000, 0.00000000, 0.00000000, 0.00000000, 0.00000000, 0.00000000, 0.00000000, 0.00000000, 0.00000000, 0.00000000, -0.09569341, 0.02984108, 0.10762577, 0.07385910, 0.25022581, 0.19280256, 0.40743497, 0.04030768, 0.34362099, 0.23206519, 0.35073459, 0.14555323, -0.07639638, -0.07148190, -0.12736134, 0.32193029, -0.46662763, 0.02025176, 0.03800950, 0.42691430, 0.21376044, 0.28745562, 0.11498516, -0.11520182, 0.03181494, 0.11092369, -0.06761409, 0.33099762, -0.08387628, -0.27828929, -0.39509007, -0.21740946, -0.20858124, 0.15169816, 0.24826391, 0.35969743, 0.24853393, 0.19106586, 0.01379999, -0.26407167, -0.38338280, 0.22358464, -0.25456393, -0.14188910, -0.36619228, -0.20755984, -0.04005742, -0.13807492, -0.02270495, 0.62213820, 0.95939326, 0.33726779, 0.11571187, -0.14710331, -0.41178307, -0.44349977, 0.00486510, 0.02440666, -0.16535142, -0.04694672, -0.05920190, -0.18281099, 0.18552177, 0.00643766, 0.23285392, 0.34809887, 0.20020764, 0.18270412, -0.17389947, -0.08034702, -0.03841094, -0.18283601, -0.00166833, -0.06136869, -0.05331729, -0.34740844, -0.30837548, -0.13221346, -0.28846249, 0.03959025, 0.26286888, 0.21532930, 0.01108376, -0.15915443, 0.00444136, -0.26473168, -0.02419528, 0.00674637, -0.04961123, -0.18787764, -0.00473607, 0.19799808, -0.08000615, -0.01864625, 0.22929439, 0.07487439, -0.16154124, -0.51460904, -0.16949704, -0.30896905, 0.16510522, -0.03246469, -0.09329843, -0.01640306, 0.21083950, -0.18042921, -0.32388598, 0.00523378, -0.10540230, 0.06874387, -0.25228775, 0.07140567, -0.06795202, -0.06350163, -0.03922563, 0.07775188, 0.06983367, 0.06403062, -0.09273001, -0.28667957, -0.31199795, -0.00097799, -0.25433660, -0.18707073, -0.01636037, -0.25558960, -0.00072994, -0.10272894, 0.13791373, 0.14937581, 0.14767277, -0.00378367, -0.00101812, -0.18157531, 0.01213498, -0.01423802, -0.07383822, -0.11181492, 0.05082671, -0.23064345, 0.20662890, 0.01314443, 0.14366491, 0.19118066, 0.19003271, 0.26932067, 0.17584518, 0.25326198, 0.03120060, 0.01799220, 0.20208488, 0.18474893, 0.12700786, 0.21290156, 0.11288898, 0.00568899, 0.34062514, 0.30377665, 0.22721983, 0.28174794, 0.38094682, 0.33092618, 0.25286517, 0.05443222, -0.11193572, 0.02486465, -0.00514728, -0.10934158, 0.05193610, -0.66062373, -0.27624595, -0.02915888, -0.11559013, -0.02346865, 0.13922316, -0.00629685, 0.11504009, 0.05703907, 0.03745234, 0.00390728, 0.03541337, -0.26540908, -0.04683721, 0.02328695, 0.04403504, 0.32158530, 0.57892567, 0.13137439, 0.25153163, -0.07989217, -0.08464381, 0.20672381, 0.13501213, -0.19130088, 0.01131800, 0.01328912, 0.00000000, 0.00000000, 0.00000000, 0.00000000, 0.00000000, 0.00000000, 0.00000000, 0.00000000, 0.00000000, 0.00000000, 0.00000000, 0.00000000, 0.00000000, 0.00000000, 0.00000000, 0.00000000, 0.00000000, 0.00000000, 0.00000000, 0.00000000, 0.00000000, 0.00000000, 0.00000000, 0.00000000, 0.00000000, 0.00000000, 0.00000000, 0.00000000, 0.00000000, 0.00000000, 0.00000000, 0.00000000, 0.00000000, 0.00000000, 0.00000000, 0.00000000, 0.00000000, 0.00000000, 0.00000000, 0.00000000, 0.00000000, 0.00000000, 0.00000000, 0.00000000, 0.00000000, 0.00000000, 0.00000000, 0.00000000, 0.00000000, 0.00000000, 0.00000000, 0.00000000, 0.00000000, 0.00000000, 0.00000000, 0.00000000, 0.00000000, 0.00000000, 0.00000000, 0.00000000, 0.06163135, 0.12402393, -0.02090158, 0.24796313, 0.47802627, 0.24660431, 0.37642652, -0.09183018, 0.12478790, 0.31108761, 0.10222799, 0.18615563, 0.11828454, -0.11734205, -0.15487921, 0.22031070, 0.09296247, 0.05346818, 0.39299935, 0.19072813, 0.05343648, -0.11641411, 0.01022045, -0.12741303, 0.01421931, -0.21218367, -0.19448367, -0.03004232, 0.03104725, -0.25874668, 0.35196647, 0.09417722, 0.13125111, 0.23105703, 0.06745839, -0.01788610, 0.03298583, -0.06594762, -0.27001134, -0.03000036, -0.31001043, 0.47405496, 0.11256764, 0.06593118, -0.10677282, -0.04016667, 0.05625994, 0.11616046, 0.16383617, -0.25538149, -0.30202708, -0.23916762, -0.29870033, -0.15139009, 0.13623771, -0.06127107, 0.22569130, 0.07985239, 0.01086871, 0.02846488, 0.48207936, 0.21842685, -0.39105663, -0.33655122, -0.17565089, -0.12154773, 0.09641321, -0.12931739, 0.24381562, -0.04655075, 0.30185887, 0.07531913, 0.09193653, 0.33019617, 0.64141554, -0.05616945, -0.32565093, 0.15407418, 0.33665881, 0.12790434, 0.31351063, 0.27053964, 0.26702642, 0.00754578, 0.47242093, 0.23514061, 0.22676736, 0.26698861, 0.41719246, -0.11500879, -0.61932045, 0.07978479, 0.10673642, -0.07635949, 0.17039073, 0.52969503, 0.48282477, 0.02839491, 0.22984122, -0.06130527, 0.29970542, 0.43770397, 0.51231539, -0.35509962, -0.28002822, -0.09746838, -0.36870822, -0.25243336, 0.06471667, 0.54243529, 0.25685811, -0.09352192, -0.04146542, -0.11219997, -0.11935265, 0.24639314, 0.25150794, 0.07406964, -0.15914196, -0.39550284, -0.37534809, -0.17448942, 0.37941772, 0.49843386, 0.25625077, -0.14317144, -0.19280529, -0.14683010, -0.04404927, 0.05634965, 0.29229808, 0.12204315, 0.01130198, -0.25746101, -0.32068050, 0.29647085, 0.39222175, 0.33025751, -0.02419663, -0.45569533, -0.15946819, 0.32528901, -0.11291207, -0.21274912, 0.06126528, -0.09797990, -0.05538606, -0.05896914, 0.14480661, 0.43678388, 0.20949142, 0.10021601, 0.13058583, -0.18016823, 0.11073123, 0.14008789, -0.03569250, -0.29577753, -0.34071121, -0.27090439, -0.09389155, 0.11433876, 0.43046552, 0.43794563, 0.15397124, -0.10941719, -0.33522475, 0.43171355, -0.03562842, 0.29036176, -0.26260298, 0.07314324, 0.00020842, 0.13136292, -0.09064649, 0.34693202, 0.22904471, 0.12803708, 0.00873405, 0.00885618, -0.25563103, -0.10331692, -0.06413513, 0.10816990, 0.11370160, 0.18194737, -0.09530559, -0.08473399, -0.02700192, -0.09295439, -0.00757114, 0.43443361, 0.47967222, 0.26323614, -0.02726001, -0.10110176, 0.00000000, 0.00000000, 0.00000000, 0.00000000, 0.00000000, 0.00000000, 0.00000000, 0.00000000, 0.00000000, 0.00000000, 0.00000000, 0.00000000, 0.00000000, 0.00000000, 0.00000000, 0.00000000, 0.00000000, 0.00000000, 0.00000000, 0.00000000, 0.00000000, 0.00000000, 0.00000000, 0.00000000, 0.00000000, 0.00000000, 0.00000000, 0.00000000, 0.00000000, 0.00000000, 0.00000000, 0.00000000, 0.00000000, 0.00000000, 0.00000000, 0.00000000, 0.00000000, 0.00000000, 0.00000000, 0.00000000, 0.00000000, 0.00000000, 0.00000000, 0.00000000, 0.00000000, 0.00000000, 0.00000000, 0.00000000, 0.00000000, 0.00000000, 0.00000000, 0.00000000, 0.00000000, 0.00000000, 0.00000000, 0.00000000, 0.00000000, 0.00000000, 0.00000000, 0.00000000, 0.01916723, -0.08977144, 0.08624503, 0.24669608, 0.25188228, 0.46103561, 0.44203404, -0.11412343, 0.36515847, 0.09776615, 0.20600456, 0.09851515, -0.12397934, 0.02919228, 0.06236877, 0.33644548, 0.00475290, 0.11442918, 0.21067303, 0.02105017, 0.23957983, 0.08489238, 0.10953595, 0.07581685, 0.03432605, 0.34030700, -0.02219894, 0.23665100, -0.03227964, -0.17323060, -0.28128043, -0.27837119, -0.25560313, -0.31174460, -0.17763831, 0.05672648, 0.06336548, 0.16953999, 0.04295011, -0.03219508, 0.20746434, 0.35855797, -0.14726572, -0.34950429, -0.28639016, -0.45267245, -0.24590777, -0.26694053, -0.06895813, 0.15052906, 0.12502588, 0.10953198, -0.10985330, 0.09070751, 0.18209997, 0.09228557, 0.18562999, -0.08927425, -0.63728863, -0.38124147, -0.14895830, 0.06444182, 0.07139177, 0.04048579, -0.02385191, -0.07027110, 0.00105065, 0.03519377, 0.27013054, -0.05727899, 0.04278187, 0.09103683, -0.18363760, 0.01257146, -0.04945338, 0.01662674, 0.18585412, -0.12183627, -0.26155847, -0.07846355, -0.15819265, -0.01114391, 0.24169147, -0.06687986, -0.06124896, 0.16670553, 0.07619528, 0.15573581, -0.05755601, -0.05273134, -0.04111728, -0.26056620, -0.18509197, -0.05487433, 0.02295325, 0.18848519, 0.25738621, -0.58199120, -0.20108165, -0.27837113, -0.07690702, 0.05240009, 0.32111657, 0.30230328, 0.30114782, -0.02637716, -0.05887746, -0.09779947, 0.02575926, 0.12329826, 0.04015703, -0.21754886, -0.10628192, -0.41540739, -0.19651575, 0.25662464, 0.60076475, 0.66892016, 0.20273964, -0.09344111, -0.10160015, -0.08202635, -0.00401283, 0.07802902, 0.18881717, -0.14871652, -0.00860664, -0.22016348, -0.06225483, 0.22123216, 0.57098472, 0.30284014, -0.16164310, -0.09942897, -0.06718071, -0.15303384, -0.06992800, 0.25674272, 0.41353413, -0.26581678, 0.23488086, -0.06099568, -0.13718574, 0.08650125, 0.47226623, 0.39827642, -0.06226925, -0.06554358, -0.04858730, -0.20905164, 0.12585126, 0.21583885, 0.10653371, 0.31110498, -0.05079684, -0.28076032, 0.04488545, 0.11632095, 0.12274636, 0.07277110, 0.12353971, 0.01053945, -0.02858700, -0.04717985, -0.08853466, -0.06379769, -0.16745974, -0.22317839, -0.10034817, -0.45500988, -0.28133166, -0.22579353, -0.17112999, -0.02375330, 0.06149938, -0.08166205, -0.09491194, -0.25176677, -0.25433132, -0.34848323, -0.14247903, 0.22998276, 0.04965279, -0.07348391, -0.17365263, -0.19468312, -0.18205331, -0.05104955, 0.11830390, 0.06412779, -0.01545161, 0.02096239, 0.09479287, -0.16049701, 0.10672048, 0.04367234, 0.00000000, 0.00000000, 0.00000000, 0.00000000, 0.00000000, 0.00000000, 0.00000000, 0.00000000, 0.00000000, 0.00000000, 0.00000000, 0.00000000, 0.00000000, 0.00000000, 0.00000000, 0.00000000, 0.00000000, 0.00000000, 0.00000000, 0.00000000, 0.00000000, 0.00000000, 0.00000000, 0.00000000, 0.00000000, 0.00000000, 0.00000000, 0.00000000, 0.00000000, 0.00000000, 0.00000000, 0.00000000, 0.00000000, 0.00000000, 0.00000000, 0.00000000, 0.00000000, 0.00000000, 0.00000000, 0.00000000, 0.00000000, 0.00000000, 0.00000000, 0.00000000, 0.00000000, 0.00000000, 0.00000000, 0.00000000, 0.00000000, 0.00000000, 0.00000000, 0.00000000, 0.00000000, 0.00000000, 0.00000000, 0.00000000, 0.00000000, 0.00000000, 0.00000000, 0.00000000, 0.11036359, -0.14172085, 0.05158797, -0.13685124, 0.13473213, 0.01730450, -0.21556400, 0.06986183, -0.32675552, -0.11676682, 0.07953548, 0.02777460, -0.10207745, -0.14714345, -0.01287037, -0.17118225, -0.09973604, 0.30916390, 0.24083596, -0.09479392, 0.22192749, -0.01203229, -0.28674313, -0.41977489, -0.70532525, -0.08646517, -0.02071493, -0.04822028, 0.09781261, 0.24371082, 0.14499357, 0.05011744, 0.07474343, 0.11235845, 0.23803195, -0.08309859, -0.03978999, -0.48448700, -0.55826670, -0.58055073, -0.37270704, 0.07424163, 0.03617045, 0.14240156, -0.02619809, 0.09137544, -0.11879954, -0.04270854, -0.03972745, 0.22014487, 0.13561478, -0.46159619, -0.41942903, -0.79760545, -0.59469771, -0.26850387, -0.32801130, 0.11841972, -0.00286550, -0.18734063, -0.08652911, -0.24788010, 0.15484974, 0.61882365, 0.44133598, -0.15046291, -0.80714852, -0.85041761, -0.71329242, -0.19046804, 0.06402642, 0.00669688, -0.14234848, -0.10486148, 0.02249072, 0.06881091, 0.14034992, 0.66339564, 0.50434315, 0.08132480, -0.97355205, -0.73084432, -0.51482350, 0.16411014, -0.06462774, -0.07391968, -0.48191983, 0.04049157, 0.15736173, 0.08075747, 0.25742733, 0.31788972, 0.35001782, -0.10816543, -0.78412110, -0.70001310, -0.07850990, 0.05591865, -0.16119109, 0.01440698, -0.49994335, -0.04981869, 0.03052262, -0.18978927, -0.06004895, 0.30746344, 0.19343548, -0.23928185, -0.33432099, 0.00143045, 0.37411723, 0.61138922, -0.00067197, 0.10629708, -0.10634171, -0.07549044, -0.19971539, -0.19525018, -0.08157016, 0.21485637, -0.08178001, -0.36495534, -0.03946147, 0.12715274, 0.24638993, 0.19103697, -0.13620110, -0.22514768, -0.36516315, -0.03718052, 0.02485162, -0.29593956, -0.03030175, 0.19924262, -0.18558358, -0.14864382, 0.18175524, 0.17456305, -0.12023661, 0.01644499, 0.13792701, 0.00654875, 0.16825844, -0.01938706, 0.13727175, -0.21016110, 0.01346758, 0.15379512, -0.05609232, 0.02796274, 0.02131832, -0.14155714, 0.21637248, 0.23462307, 0.01339120, 0.10451202, -0.19879615, -0.09444435, -0.08011710, -0.03350539, -0.17552584, 0.16527896, 0.09752575, 0.31112814, -0.02332885, -0.01884985, 0.13626346, 0.25757781, 0.13595085, -0.32962000, -0.01355157, -0.05658447, -0.28757957, -0.08631914, 0.00406549, -0.10692330, 0.18191887, 0.18224628, -0.14211750, -0.01649193, -0.14236748, -0.33005631, 0.10894211, -0.16091980, 0.08119956, 0.24457242, 0.02376832, -0.16142915, -0.21624748, -0.05634936, 0.06200624, -0.03552952, -0.21437944, -0.18946084, -0.04868146, 0.15153585, 0.00000000, 0.00000000, 0.00000000, 0.00000000, 0.00000000, 0.00000000, 0.00000000, 0.00000000, 0.00000000, 0.00000000, 0.00000000, 0.00000000, 0.00000000, 0.00000000, 0.00000000, 0.00000000, 0.00000000, 0.00000000, 0.00000000, 0.00000000, 0.00000000, 0.00000000, 0.00000000, 0.00000000, 0.00000000, 0.00000000, 0.00000000, 0.00000000, 0.00000000, 0.00000000, 0.00000000, 0.00000000, 0.00000000, 0.00000000, 0.00000000, 0.00000000, 0.00000000, 0.00000000, 0.00000000, 0.00000000, 0.00000000, 0.00000000, 0.00000000, 0.00000000, 0.00000000, 0.00000000, 0.00000000, 0.00000000, 0.00000000, 0.00000000, 0.00000000, 0.00000000, 0.00000000, 0.00000000, 0.00000000, 0.00000000, 0.00000000, 0.00000000, 0.00000000, 0.00000000, 0.03991576, 0.02237678, -0.13950990, -0.30067402, -0.19701007, -0.36393449, -0.31429064, 0.02051995, -0.21779372, -0.17958274, -0.39831182, -0.15913643, -0.07171496, -0.04954182, 0.01099397, -0.12544970, -0.30491492, -0.06618462, -0.21571082, -0.23870420, -0.14219625, -0.11401500, 0.03894682, 0.13058412, 0.06735812, 0.38931760, 0.17156465, 0.05013525, -0.11097039, 0.01224724, -0.14200036, -0.08434390, 0.36524281, 0.21224830, 0.03774174, 0.22923911, 0.20194107, 0.20289235, 0.34287834, 0.37347502, 0.26040500, 0.23242451, -0.10158482, -0.01132106, -0.06195812, 0.05692459, 0.15847926, 0.24638678, 0.04962760, -0.33783153, -0.17238240, 0.16029465, 0.32460225, 0.30806687, 0.49317202, 0.19228722, -0.21978225, 0.25705439, 0.03045429, 0.04445489, 0.21864912, 0.18554513, -0.02838305, -0.36977154, -0.29952812, 0.04531364, 0.20697957, 0.03851705, 0.44868493, 0.40169653, 0.10626329, -0.07763813, 0.04350103, 0.03329763, 0.11429497, 0.14269903, 0.14808479, -0.12770540, -0.09283186, -0.02754111, 0.09215109, 0.14925551, 0.16246216, 0.26825821, 0.37459904, -0.06626955, -0.02657496, -0.12521663, -0.15290698, 0.08376241, -0.02187021, -0.19324200, 0.22889243, 0.04301040, 0.03043198, 0.08785010, -0.03091234, 0.05932399, -0.04637135, 0.26388240, -0.14530791, -0.18630710, -0.11499861, 0.07123362, 0.02213924, 0.37512302, 0.23404674, 0.14195845, -0.07400640, -0.25533265, 0.15497604, -0.00863805, -0.28920153, 0.01576529, -0.09261720, 0.08092707, 0.30282217, 0.27823615, 0.27297366, 0.35998499, -0.05908394, -0.12340773, -0.05779799, 0.02969263, 0.14485024, 0.36108023, 0.00688466, -0.14737813, -0.15325679, 0.23398855, 0.21941264, 0.30237389, 0.23469436, 0.04898830, -0.15488148, -0.14435847, -0.12312840, -0.00835335, 0.30768284, 0.43307149, -0.13027434, -0.20193647, 0.04267653, 0.00489469, 0.24752812, -0.02449483, -0.10834215, 0.10719135, -0.06519587, -0.05143304, -0.01868492, 0.06051413, 0.02618172, -0.29123425, 0.13318737, -0.18971734, 0.06788632, 0.02224230, -0.10198267, 0.02371087, 0.20106818, 0.09073487, 0.15226629, 0.10138047, 0.20482273, 0.25901419, -0.00143960, -0.18818887, -0.15600482, -0.37262329, -0.32286751, -0.16355774, -0.07494588, -0.05153909, -0.04454737, -0.19242232, 0.20517147, -0.02586173, 0.33815277, -0.03806597, -0.07321710, 0.22212127, -0.15267763, 0.10605104, -0.17185593, -0.24221164, -0.25285736, -0.36125469, -0.44487628, -0.44308025, -0.06355131, -0.05715557, -0.26308742, 0.01782701, 0.12977047, -0.08307904, 0.00000000, 0.00000000, 0.00000000, 0.00000000, 0.00000000, 0.00000000, 0.00000000, 0.00000000, 0.00000000, 0.00000000, 0.00000000, 0.00000000, 0.00000000, 0.00000000, 0.00000000, 0.00000000, 0.00000000, 0.00000000, 0.00000000, 0.00000000, 0.00000000, 0.00000000, 0.00000000, 0.00000000, 0.00000000, 0.00000000, 0.00000000, 0.00000000, 0.00000000, 0.00000000, 0.00000000, 0.00000000, 0.00000000, 0.00000000, 0.00000000, 0.00000000, 0.00000000, 0.00000000, 0.00000000, 0.00000000, 0.00000000, 0.00000000, 0.00000000, 0.00000000, 0.00000000, 0.00000000, 0.00000000, 0.00000000, 0.00000000, 0.00000000, 0.00000000, 0.00000000, 0.00000000, 0.00000000, 0.00000000, 0.00000000, 0.00000000, 0.00000000, 0.00000000, 0.00000000, -0.01661009, 0.13473035, -0.05332439, -0.01779676, -0.08105708, 0.32443506, 0.34797472, -0.22009921, -0.15535271, -0.28362730, 0.08062541, 0.05479909, -0.04040347, -0.02102293, -0.05223975, 0.05193731, -0.35540470, -0.32918328, -0.07734298, -0.09557809, -0.23571320, -0.25475916, -0.41438657, -0.28638464, -0.22263181, -0.39493451, 0.18219121, 0.19846854, -0.09971268, -0.23322475, -0.00596524, 0.15178156, 0.17103471, -0.05939040, 0.07001718, -0.09008428, -0.05635162, -0.10165010, -0.13929097, -0.02733136, -0.07057784, 0.37453908, -0.31870726, 0.25512320, 0.18359099, 0.24468879, 0.11827944, 0.25911114, 0.14535461, 0.21076006, 0.19523215, 0.22193679, 0.08691562, 0.05752321, -0.10043807, -0.06326598, 0.52580696, 0.48834467, 0.14469795, 0.24195518, 0.25014871, 0.30194202, 0.47421789, 0.34491122, 0.35597575, 0.19810414, 0.05142655, 0.16849138, 0.05595615, -0.22803317, 0.09080930, 0.21754164, -0.11353002, -0.06358156, -0.06485108, 0.09920687, 0.10937221, 0.08630696, 0.13680871, 0.26176482, -0.02442226, 0.13439250, -0.07633287, -0.52132094, 0.20584068, -0.17779984, -0.24309221, -0.19452144, -0.25148299, -0.42761040, -0.35892168, -0.39865011, -0.29643580, -0.05863906, 0.04020977, 0.08370870, -0.02453330, -0.55745369, -0.09756832, -0.16745615, -0.10093607, -0.15154444, -0.00215176, -0.37678847, -0.38284948, -0.57560045, -0.11794285, -0.03848382, -0.02583513, 0.05611945, 0.19685148, -0.01033338, -0.37566313, -0.41256618, -0.01794242, 0.16841663, 0.11394329, -0.03563314, -0.10244329, -0.41549477, -0.15962577, 0.01916639, -0.01517216, -0.06180842, 0.00655418, 0.30069333, 0.42635384, -0.09689312, 0.13139969, 0.14723532, 0.13728948, 0.12169164, 0.04862254, -0.00619505, 0.03020520, 0.05559771, -0.19071035, -0.06608620, -0.14114775, 0.03264776, 0.22295809, -0.08888376, 0.02939049, 0.03610721, 0.05167095, 0.21251290, 0.03552607, 0.16916350, 0.01805154, -0.24485494, -0.33104059, -0.11948479, 0.01815835, 0.34901565, -0.02091639, -0.23350911, 0.28103632, 0.28338435, 0.19337524, 0.16757198, 0.19240786, 0.12742093, 0.16342753, 0.00047879, 0.02596465, -0.08152584, -0.11585967, -0.16841094, 0.09535606, 0.50455976, 0.13050961, 0.19628634, 0.10625322, 0.03649508, 0.20111679, 0.10916164, 0.31929147, 0.05903109, -0.10720762, -0.10846069, -0.10680749, 0.26478487, 0.15691225, 0.01431946, -0.18121158, -0.07090908, 0.31046471, 0.20683509, 0.18862362, 0.11993317, 0.06002501, 0.18874177, 0.14503036, 0.20479228, -0.00424589, -0.16028345, 0.00000000, 0.00000000, 0.00000000, 0.00000000, 0.00000000, 0.00000000, 0.00000000, 0.00000000, 0.00000000, 0.00000000, 0.00000000, 0.00000000, 0.00000000, 0.00000000, 0.00000000, 0.00000000, 0.00000000, 0.00000000, 0.00000000, 0.00000000, 0.00000000, 0.00000000, 0.00000000, 0.00000000, 0.00000000, 0.00000000, 0.00000000, 0.00000000, 0.00000000, 0.00000000, 0.00000000, 0.00000000, 0.00000000, 0.00000000, 0.00000000, 0.00000000, 0.00000000, 0.00000000, 0.00000000, 0.00000000, 0.00000000, 0.00000000, 0.00000000, 0.00000000, 0.00000000, 0.00000000, 0.00000000, 0.00000000, 0.00000000, 0.00000000, 0.00000000, 0.00000000, 0.00000000, 0.00000000, 0.00000000, 0.00000000, 0.00000000, 0.00000000, 0.00000000, 0.00000000, 0.08763573, 0.01014781, 0.10621543, 0.30426216, 0.45553449, 0.29822916, 0.19779557, 0.02034803, 0.50198931, 0.13183011, 0.33600157, 0.21773748, -0.01326665, 0.12825854, 0.07513408, 0.21086486, 0.01261812, 0.48256484, 0.26992115, 0.43854430, 0.21865788, 0.13371715, 0.08634531, -0.11540995, -0.04560567, 0.07123026, -0.04851740, 0.20052154, 0.08070333, -0.02387904, 0.25815266, 0.02104457, 0.00825119, -0.11218843, 0.03716041, -0.05970339, 0.01318314, -0.18227604, -0.07862338, -0.16320832, -0.06752390, -0.21522646, 0.12529099, 0.18509971, -0.07239599, -0.21091640, -0.00375963, -0.09808221, -0.23039846, -0.15121524, -0.12645583, -0.30262208, -0.28807107, -0.19657606, -0.23571151, 0.07478824, 0.37790936, 0.15463758, -0.22413300, -0.15252095, -0.11419723, -0.32246533, -0.24541177, 0.15235429, 0.13857791, -0.08004506, -0.15962473, -0.24440466, -0.45633075, -0.24459459, 0.21310107, -0.22319119, -0.22950779, -0.29939249, -0.38749695, -0.25329927, -0.46020111, 0.05400869, -0.02376334, -0.14924732, -0.04030493, -0.06264351, -0.12300652, -0.21668695, -0.08190172, -0.47518352, -0.16194151, -0.14659092, -0.02355877, 0.09961382, 0.42109329, 0.16668017, -0.13971326, -0.01122436, 0.01670383, 0.17963979, 0.19043398, -0.07781090, -0.15311572, 0.12374195, -0.03098118, 0.14850368, 0.39520127, 0.68313760, 0.38691431, 0.17143463, 0.03945354, 0.02479808, 0.02025927, 0.23519209, 0.37247026, 0.06444310, -0.22875963, -0.00665929, 0.28845200, 0.33681041, 0.23212686, 0.30474126, -0.00510910, 0.24103349, 0.22101715, 0.23551120, 0.30006680, 0.15187253, 0.30376336, 0.22594087, 0.45443201, 0.33050364, 0.14689519, 0.21846135, 0.15873376, 0.16008782, 0.16555364, 0.15296504, 0.60414869, 0.33701232, 0.14641416, 0.10734345, 0.21182926, 0.12660880, -0.12481195, 0.31261063, -0.04731727, -0.07003360, 0.15289818, 0.29497999, 0.20216753, 0.06984195, 0.16100730, -0.00188602, 0.13247845, -0.15507028, -0.11649278, 0.63901818, 0.09360345, 0.25831422, 0.10119672, -0.24746838, 0.03799364, -0.05724844, -0.22000700, -0.38494781, -0.43496832, -0.36072946, -0.36259845, -0.27980334, -0.13799033, 0.12708044, -0.09402482, -0.51663321, -0.35326692, -0.50177622, -0.39220324, -0.37822405, -0.35264814, -0.52525944, -0.51244122, -0.75208569, -0.48422199, -0.26575792, 0.07382203, 0.29794264, 0.06029439, -0.11367288, -0.30273467, -0.66774464, -0.63865584, -0.47467396, -0.64898551, -0.56508744, -0.28768438, -0.35510087, -0.24460536, -0.22743829, -0.15670805, 0.04799105, 0.00000000, 0.00000000, 0.00000000, 0.00000000, 0.00000000, 0.00000000, 0.00000000, 0.00000000, 0.00000000, 0.00000000, 0.00000000, 0.00000000, 0.00000000, 0.00000000, 0.00000000, 0.00000000, 0.00000000, 0.00000000, 0.00000000, 0.00000000, 0.00000000, 0.00000000, 0.00000000, 0.00000000, 0.00000000, 0.00000000, 0.00000000, 0.00000000, 0.00000000, 0.00000000, 0.00000000, 0.00000000, 0.00000000, 0.00000000, 0.00000000, 0.00000000, 0.00000000, 0.00000000, 0.00000000, 0.00000000, 0.00000000, 0.00000000, 0.00000000, 0.00000000, 0.00000000, 0.00000000, 0.00000000, 0.00000000, 0.00000000, 0.00000000, 0.00000000, 0.00000000, 0.00000000, 0.00000000, 0.00000000, 0.00000000, 0.00000000, 0.00000000, 0.00000000, 0.00000000, 0.07946181, 0.13986175, 0.05247696, 0.13235191, 0.40129927, 0.24998671, -0.01129763, 0.16047402, 0.26225704, 0.44690698, 0.11842401, 0.17650479, 0.02988224, 0.02956857, 0.12648501, 0.27877715, 0.33617821, 0.15038384, -0.14315529, -0.00623365, -0.15784363, 0.08151832, 0.23146088, 0.31695208, 0.18261571, 0.22475371, 0.25752696, 0.18152164, -0.03975073, 0.10165642, 0.27553159, 0.19860758, -0.00515380, -0.21498306, -0.33652332, -0.25204864, 0.01534676, 0.03299597, 0.04565156, -0.02308293, 0.15702005, -0.07558551, 0.24242687, -0.11914878, 0.11458459, -0.04709107, 0.14641361, 0.15178931, -0.07491159, 0.27614802, 0.36875567, 0.21384184, 0.46499214, 0.12262982, 0.52396327, 0.36980242, 0.15766104, 0.08942617, -0.06548481, -0.10898033, 0.08866370, 0.09934238, 0.36939639, 0.41246530, 0.17885603, 0.00165336, -0.10025942, 0.02309832, 0.22709858, 0.02418569, 0.19028378, 0.37127185, -0.03828736, -0.14274035, -0.15283436, -0.07613616, 0.21221003, 0.03463211, -0.34718490, -0.38310957, -0.44569653, -0.32627758, -0.24282260, 0.37149045, 0.10113689, 0.13774201, -0.17387387, -0.40617147, -0.06111174, -0.08759654, 0.04802851, 0.12516534, 0.03307627, -0.30787283, -0.47584915, -0.64571285, -0.70308304, -0.10336740, 0.14741333, 0.16257961, 0.07505573, -0.11880020, 0.02308542, 0.16587937, -0.05509106, 0.01138487, -0.10098916, 0.31875545, -0.00367389, -0.00707143, -0.28473994, -0.28189284, 0.14970393, 0.27151784, 0.12926830, -0.12801857, 0.01009011, 0.08288450, -0.11062229, -0.21488211, 0.08088388, 0.30761454, 0.24558730, -0.02457703, -0.34046012, -0.37489393, 0.37026206, 0.22924820, 0.33122459, -0.23745674, -0.14134924, -0.35981941, -0.29473814, -0.24426593, 0.14127176, 0.42770600, 0.11842440, -0.17418092, -0.51556438, -0.02282641, 0.11039099, -0.08850863, 0.07588469, -0.04046547, -0.01822991, -0.11526749, 0.07673717, 0.22745624, 0.19557358, 0.12210938, 0.07184929, -0.31053287, -0.20880418, -0.13102590, 0.07137953, 0.22958240, -0.05706939, -0.11338259, -0.15070856, 0.19935527, 0.07480884, 0.21055867, 0.15611739, -0.06607585, 0.04259511, -0.41563711, -0.48263991, -0.13525903, 0.12715138, 0.54186231, 0.49386263, -0.00187184, -0.03985101, 0.25255224, 0.30884832, 0.45846540, 0.15446511, -0.29228330, -0.32307103, -0.24562229, -0.48153555, 0.02340649, -0.05243669, -0.15883188, -0.04335477, 0.20721233, 0.53758490, 0.69596720, 0.54934359, 0.56922132, 0.42455319, 0.09975149, 0.28793857, 0.06411871, -0.12641495, -0.13209668, 0.00000000, 0.00000000, 0.00000000, 0.00000000, 0.00000000, 0.00000000, 0.00000000, 0.00000000, 0.00000000, 0.00000000, 0.00000000, 0.00000000, 0.00000000, 0.00000000, 0.00000000, 0.00000000, 0.00000000, 0.00000000, 0.00000000, 0.00000000, 0.00000000, 0.00000000, 0.00000000, 0.00000000, 0.00000000, 0.00000000, 0.00000000, 0.00000000, 0.00000000, 0.00000000, 0.00000000, 0.00000000, 0.00000000, 0.00000000, 0.00000000, 0.00000000, 0.00000000, 0.00000000, 0.00000000, 0.00000000, 0.00000000, 0.00000000, 0.00000000, 0.00000000, 0.00000000, 0.00000000, 0.00000000, 0.00000000, 0.00000000, 0.00000000, 0.00000000, 0.00000000, 0.00000000, 0.00000000, 0.00000000, 0.00000000, 0.00000000, 0.00000000, 0.00000000, 0.00000000, 0.02234335, -0.10529124, -0.12229158, 0.44265798, 0.20280479, 0.02725276, 0.06638421, 0.21609341, 0.22211134, 0.18867630, 0.33311903, 0.33944449, -0.02440146, -0.01285428, 0.06507555, 0.26821828, 0.20581608, -0.14766023, -0.11405567, -0.02444853, -0.32548657, 0.06652486, -0.07977430, -0.07994240, 0.30335596, 0.10655869, 0.24753274, 0.12817019, 0.08569941, 0.11143778, -0.03650977, -0.24571228, -0.17542876, -0.01808621, 0.02158529, 0.05223704, 0.00781834, -0.00666566, 0.12209352, 0.16796149, 0.11133683, -0.09569927, 0.09730462, 0.03005534, 0.11165459, -0.20310880, -0.15628843, -0.09784066, 0.08319879, -0.18884924, -0.15943177, -0.21160153, -0.11704189, -0.08138821, 0.19757731, 0.18987113, 0.26595145, -0.14753564, -0.31384870, -0.24761413, -0.41642040, -0.25266510, 0.15409690, 0.07649118, -0.04539432, -0.11132871, -0.04594007, 0.12963858, 0.34632680, 0.08236799, 0.20242608, -0.07715008, -0.26120311, -0.29231223, -0.05099935, 0.27377492, 0.52660930, 0.09782078, -0.13029967, -0.25060296, -0.28526124, -0.23891252, -0.05597347, 0.29461887, 0.22551534, -0.02782076, -0.11461613, 0.01109122, 0.38042453, 0.44507253, 0.31024143, -0.42579651, -0.35710230, -0.16372339, -0.21091288, -0.40332228, -0.57124013, -0.12741427, 0.19725123, 0.11887345, -0.14403090, 0.25919551, 0.30544055, 0.43645883, -0.32441941, -0.47232011, 0.02398678, 0.19382809, 0.17262284, 0.04469442, -0.17904744, -0.27776942, 0.25656918, -0.02810215, -0.06040093, -0.06149850, 0.03494768, -0.10088928, -0.09617866, -0.11899099, 0.05900002, 0.28693920, 0.24335499, 0.00284115, -0.05737335, -0.44673488, 0.29422274, 0.19006480, -0.06117239, -0.03604265, -0.08294658, 0.27671173, 0.14119995, -0.00329216, 0.26670730, 0.12428207, -0.01899583, 0.00969535, 0.06789967, 0.11284910, -0.01203322, 0.16063699, 0.05219732, 0.05873965, 0.16908802, 0.17125808, 0.25181708, 0.20445903, 0.02086578, 0.02794673, -0.04764749, -0.05660633, -0.03143346, 0.31730020, 0.04568604, -0.11933368, -0.30914679, -0.12155467, 0.00148011, 0.06216660, 0.14067827, 0.03174718, -0.01017143, -0.01701103, 0.03056297, -0.03989285, -0.05056780, 0.20826086, 0.03211863, 0.16225021, -0.11545826, 0.10740582, -0.11477023, -0.08793346, -0.00297272, -0.10633676, -0.06076774, 0.18271741, -0.06709560, 0.19828235, 0.11168374, 0.11095114, 0.14242844, -0.07135620, -0.44939503, -0.35035709, -0.05439621, -0.00294481, -0.13962719, -0.32748216, -0.17443189, -0.12030252, 0.17338103, 0.19762915, -0.07925434, 0.04534452, 0.00000000, 0.00000000, 0.00000000, 0.00000000, 0.00000000, 0.00000000, 0.00000000, 0.00000000, 0.00000000, 0.00000000, 0.00000000, 0.00000000, 0.00000000, 0.00000000, 0.00000000, 0.00000000, 0.00000000, 0.00000000, 0.00000000, 0.00000000, 0.00000000, 0.00000000, 0.00000000, 0.00000000, 0.00000000, 0.00000000, 0.00000000, 0.00000000, 0.00000000, 0.00000000, 0.00000000, 0.00000000, 0.00000000, 0.00000000, 0.00000000, 0.00000000, 0.00000000, 0.00000000, 0.00000000, 0.00000000, 0.00000000, 0.00000000, 0.00000000, 0.00000000, 0.00000000, 0.00000000, 0.00000000, 0.00000000, 0.00000000, 0.00000000, 0.00000000, 0.00000000, 0.00000000, 0.00000000, 0.00000000, 0.00000000, 0.00000000, 0.00000000, 0.00000000, 0.00000000, -0.05652925, -0.14298472, 0.03725304, 0.09240671, -0.09030788, 0.04027834, -0.01558349, -0.07976132, -0.05632420, -0.20883955, -0.29026857, -0.32256657, -0.01494065, -0.06058449, -0.15797542, -0.15297747, -0.16514091, -0.03905485, -0.07452679, -0.02451485, 0.15769473, 0.17816117, 0.20278634, 0.12512155, 0.09814736, -0.15441372, -0.27018979, -0.20457612, -0.00591226, -0.14324607, -0.38744837, -0.38906899, -0.70492595, -0.40712801, -0.44492641, 0.00190181, -0.02985562, 0.34353945, 0.25483245, 0.18626240, -0.12757775, -0.16587448, -0.09037074, 0.04235426, -0.11758088, -0.14173070, -0.09919566, -0.12846573, -0.14628713, -0.18490711, -0.21812820, 0.08190615, 0.09150805, 0.08025995, -0.03582009, -0.10844038, -0.12230467, 0.15656358, -0.07561673, -0.20640281, -0.12907661, -0.01379201, 0.06442877, 0.08899943, 0.19948395, 0.07612866, -0.04576752, 0.10538753, -0.08208208, 0.01690295, -0.01424505, 0.14380446, -0.02436880, -0.30062005, -0.01757149, 0.03114838, -0.19969264, 0.03037539, 0.02047329, 0.22104162, 0.12811002, -0.04684550, -0.33581358, -0.04018492, -0.24163055, 0.09617804, 0.21107721, 0.09333465, 0.01414951, -0.16790546, -0.33236727, -0.27702537, -0.03381228, 0.02653320, 0.01463060, -0.00056451, -0.24939649, -0.18685010, 0.08182278, 0.01790066, 0.22308095, 0.08272082, 0.18540764, -0.13216937, -0.14109355, 0.21901610, 0.06320953, 0.19533817, -0.08340748, -0.23788588, -0.19221149, 0.12627639, 0.19448785, 0.07989652, 0.26594424, 0.29185939, 0.31232509, 0.40743405, 0.40129858, 0.15227927, -0.02202035, 0.04589370, -0.09915534, -0.17205228, 0.02981003, 0.35559359, -0.06435648, 0.26762670, -0.05448804, -0.03299579, 0.11203828, 0.57443660, 0.39921421, 0.26414517, 0.15466462, -0.01717195, 0.00556641, -0.07823960, 0.24163072, 0.21181305, 0.14664400, 0.01485880, -0.09425274, -0.10943154, -0.09524421, -0.08454742, -0.09263517, -0.16911303, -0.08162279, -0.01916417, -0.13261184, 0.12412165, 0.29599297, 0.03325417, 0.12894295, -0.01195558, -0.03765688, -0.19886070, -0.49825826, -0.53961354, -0.43755096, -0.22581485, -0.12602685, -0.07794639, -0.09342349, 0.03288604, 0.28591514, -0.13123372, -0.13449073, -0.05565372, -0.37935671, -0.39035839, -0.18412822, -0.04306436, -0.05961944, 0.00455948, 0.06942211, 0.10409740, 0.30204657, 0.02470387, -0.01977656, -0.05025537, -0.12778230, 0.03943633, -0.02552083, 0.09435941, -0.15280060, -0.06926893, 0.12355966, 0.04028138, -0.08213113, 0.09996825, 0.09918595, -0.04376076, -0.14343181, 0.03787144, 0.00000000, 0.00000000, 0.00000000, 0.00000000, 0.00000000, 0.00000000, 0.00000000, 0.00000000, 0.00000000, 0.00000000, 0.00000000, 0.00000000, 0.00000000, 0.00000000, 0.00000000, 0.00000000, 0.00000000, 0.00000000, 0.00000000, 0.00000000, 0.00000000, 0.00000000, 0.00000000, 0.00000000, 0.00000000, 0.00000000, 0.00000000, 0.00000000, 0.00000000, 0.00000000, 0.00000000, 0.00000000, 0.00000000, 0.00000000, 0.00000000, 0.00000000, 0.00000000, 0.00000000, 0.00000000, 0.00000000, 0.00000000, 0.00000000, 0.00000000, 0.00000000, 0.00000000, 0.00000000, 0.00000000, 0.00000000, 0.00000000, 0.00000000, 0.00000000, 0.00000000, 0.00000000, 0.00000000, 0.00000000, 0.00000000, 0.00000000, 0.00000000, 0.00000000, 0.00000000, 0.03557284, -0.12827775, -0.01414971, 0.23896253, 0.43493903, 0.05364544, 0.10657286, 0.12664923, -0.23452105, 0.28120479, 0.48078632, 0.12217993, 0.07872452, 0.00354671, -0.15227798, 0.30324051, 0.09602784, 0.20656377, 0.22098239, -0.14521907, -0.03185941, -0.02417744, -0.14279334, 0.05240790, 0.25736192, 0.14076731, 0.17001194, 0.38252124, 0.07513723, 0.16531470, -0.09223024, -0.27090681, -0.30777359, -0.26947731, -0.37896222, -0.21716498, 0.06561700, 0.23878790, 0.24390660, 0.06617896, -0.05757112, 0.04034847, -0.43889147, -0.22313383, -0.12117495, -0.30378738, -0.36095789, -0.42615354, -0.10318255, 0.11840121, 0.26550955, 0.24131759, 0.01336920, 0.01162068, -0.03662870, 0.01349222, -0.20316868, -0.69098634, -0.49895364, -0.29024142, -0.04315692, -0.00144512, 0.28640652, 0.13470721, -0.08950115, -0.24420588, -0.03906481, -0.15838553, -0.38505477, -0.26779068, 0.08443213, -0.45627770, -0.60133088, -0.24627087, 0.14097449, 0.36970302, 0.42708871, 0.00946426, -0.11584960, -0.12686998, 0.04424950, -0.29472020, -0.64655483, -0.48245835, -0.16832139, -0.41717100, -0.46537736, -0.34481663, 0.29519838, 0.30025995, 0.38025218, 0.38207346, -0.10300169, 0.07266929, 0.31624389, -0.00782739, -0.41297138, -0.75678766, -0.10012086, -0.42011076, -0.58816916, -0.26189643, 0.12294745, 0.16137694, 0.22093605, 0.15740122, 0.13933785, 0.02642192, -0.07072831, -0.08410902, -0.37171194, -0.62554157, -0.30790982, -0.54320240, -0.34486496, -0.28760374, 0.00749813, 0.27793723, 0.30215383, -0.09117422, -0.18162316, 0.02915902, -0.01020959, -0.25643671, -0.20677227, -0.21464999, -0.38894603, -0.71014643, -0.33771759, -0.49353600, -0.04640914, 0.12782882, -0.02394267, -0.03313597, 0.05358370, 0.03739142, -0.04554090, -0.33980253, -0.32956007, -0.03511535, -0.08778832, -0.36950409, -0.13494278, -0.17955013, -0.16063930, 0.21352942, 0.15384957, 0.04984434, 0.05873292, 0.10755971, 0.05451121, 0.02529682, -0.37763622, 0.13738914, 0.04191098, -0.29078013, -0.09317793, -0.20824845, -0.23338266, 0.03444704, 0.03359492, 0.25068197, 0.23247646, 0.09406954, 0.12156826, -0.22656904, -0.14686266, 0.12484898, -0.12789504, -0.56333172, -0.01486850, -0.19419312, 0.00647248, -0.18062593, -0.09119818, 0.05329250, 0.06167447, -0.17596005, -0.15921341, -0.22604151, -0.18885772, -0.04528365, -0.08036734, -0.04214674, 0.00181248, 0.19991669, 0.22170290, 0.04881819, -0.16307461, -0.01670804, 0.30619788, 0.05819922, -0.36676565, -0.34241268, 0.00732045, 0.07120006, 0.00000000, 0.00000000, 0.00000000, 0.00000000, 0.00000000, 0.00000000, 0.00000000, 0.00000000, 0.00000000, 0.00000000, 0.00000000, 0.00000000, 0.00000000, 0.00000000, 0.00000000, 0.00000000, 0.00000000, 0.00000000, 0.00000000, 0.00000000, 0.00000000, 0.00000000, 0.00000000, 0.00000000, 0.00000000, 0.00000000, 0.00000000, 0.00000000, 0.00000000, 0.00000000, 0.00000000, 0.00000000, 0.00000000, 0.00000000, 0.00000000, 0.00000000, 0.00000000, 0.00000000, 0.00000000, 0.00000000, 0.00000000, 0.00000000, 0.00000000, 0.00000000, 0.00000000, 0.00000000, 0.00000000, 0.00000000, 0.00000000, 0.00000000, 0.00000000, 0.00000000, 0.00000000, 0.00000000, 0.00000000, 0.00000000, 0.00000000, 0.00000000, 0.00000000, 0.00000000, 0.02231501, -0.03145409, -0.13158618, -0.18400641, -0.39591187, 0.22822332, 0.16316144, 0.13249901, 0.10860913, -0.33698031, -0.01746678, -0.11468519, -0.11907732, 0.05039743, 0.15588553, -0.01214302, -0.07291701, 0.01470513, -0.07447435, -0.58829421, -0.69570941, -0.96364397, -0.64044839, -0.54505640, -0.21763746, -0.50168520, -0.00717803, 0.14003207, 0.05533895, 0.20806883, 0.19949737, 0.14212118, -0.09626185, -0.00214624, -0.30360383, -0.31012467, -0.60079479, -0.82782233, -0.14555535, -0.38881198, 0.14740321, 0.12974438, 0.06234374, 0.15898080, -0.22830617, -0.07358912, -0.09336814, -0.06149218, -0.08937833, -0.36002064, -0.57857436, -0.43716645, -0.04944769, -0.21442346, -0.06619092, -0.52698421, 0.36014062, 0.06049699, 0.01083644, -0.03205858, 0.11650191, -0.01900114, 0.61556768, 0.30244216, -0.17095996, -0.42722830, -0.40078235, -0.19165531, 0.03031051, -0.00769539, 0.43972522, 0.31229970, 0.40769610, 0.15440641, 0.17610116, 0.36691678, 0.58574665, 0.51566482, -0.18479049, -0.28661966, -0.28443238, 0.06034315, 0.10234744, -0.11582764, 0.15955436, 0.20611617, 0.27121183, 0.06033151, 0.15578653, -0.16010940, 0.43668026, 0.32587466, -0.30553550, -0.07461126, -0.10285015, 0.08173617, 0.06337493, 0.19119512, 0.07920557, 0.16721743, -0.17457220, 0.05600051, -0.11637276, -0.15382913, 0.05018995, 0.11926570, -0.05213127, 0.13405395, 0.26262516, 0.02030765, 0.05931018, 0.27104053, -0.18878879, 0.11782546, -0.18526091, 0.12005400, 0.19073558, -0.00127238, 0.05523146, 0.07392649, 0.04513249, 0.20160805, 0.32170182, 0.22082074, 0.43680072, 0.37692016, 0.05948351, 0.41005439, 0.14983749, -0.01194053, -0.01273675, 0.18471305, -0.19115981, -0.07421611, 0.01904798, 0.08368948, 0.26033872, 0.26845741, 0.06895266, -0.24798535, 0.04579522, 0.20149718, 0.02618760, -0.19202782, 0.02493160, 0.00163908, -0.21138714, -0.03762577, -0.03239775, 0.06519254, 0.04913557, 0.11578944, -0.24807151, 0.01215769, 0.00473851, -0.09591269, -0.22457051, -0.20924371, -0.11870433, -0.06250350, -0.11701619, -0.14513154, 0.02826515, -0.10960132, -0.14221959, -0.49596146, -0.65649074, -0.03566474, -0.01549558, -0.10392386, 0.24307778, 0.34542495, 0.24673948, 0.09139992, 0.10918906, 0.10217631, -0.03346805, -0.26432315, -0.19958869, -0.35663059, -0.35363987, 0.18425559, 0.10815974, 0.01011564, 0.20956482, 0.26043466, -0.09114082, -0.25679058, -0.41622284, -0.16536319, -0.08230110, -0.02517477, 0.18363990, 0.26773199, -0.14690912, -0.10387062, 0.00000000, 0.00000000, 0.00000000, 0.00000000, 0.00000000, 0.00000000, 0.00000000, 0.00000000, 0.00000000, 0.00000000, 0.00000000, 0.00000000, 0.00000000, 0.00000000, 0.00000000, 0.00000000, 0.00000000, 0.00000000, 0.00000000, 0.00000000, 0.00000000, 0.00000000, 0.00000000, 0.00000000, 0.00000000, 0.00000000, 0.00000000, 0.00000000, 0.00000000, 0.00000000, 0.00000000, 0.00000000, 0.00000000, 0.00000000, 0.00000000, 0.00000000, 0.00000000, 0.00000000, 0.00000000, 0.00000000, 0.00000000, 0.00000000, 0.00000000, 0.00000000, 0.00000000, 0.00000000, 0.00000000, 0.00000000, 0.00000000, 0.00000000, 0.00000000, 0.00000000, 0.00000000, 0.00000000, 0.00000000, 0.00000000, 0.00000000, 0.00000000, 0.00000000, 0.00000000, -0.04163323, 0.13405247, -0.03506246, 0.07758533, 0.31714362, -0.06724922, 0.10048219, 0.17852496, 0.24101636, 0.12419882, -0.17379962, 0.21850993, 0.11026292, 0.10460396, -0.16129410, -0.02802341, -0.16518758, -0.30363622, 0.04724947, -0.06482147, 0.11545494, 0.27576038, 0.11162703, 0.36449057, 0.12935770, 0.17866096, 0.46062568, -0.11951607, -0.12434086, -0.44856632, -0.04483025, -0.23822428, 0.15242805, 0.20684011, 0.06856705, 0.09842005, 0.15442778, 0.24887086, 0.23689745, 0.26784891, 0.22407904, 0.41059902, -0.09452125, -0.34072530, -0.17587937, -0.09948304, 0.13674985, 0.31771758, 0.28298765, 0.47187629, 0.29828322, 0.25339448, 0.48718154, 0.41246122, 0.30486119, 0.47924075, -0.07346144, -0.70992923, -0.33946863, -0.07836392, 0.17177244, 0.37822562, 0.23565385, -0.12547398, -0.55208522, -0.72303528, -0.54880631, -0.12050438, -0.02878501, 0.12718485, -0.34500703, -0.44716215, 0.00484380, 0.19275844, 0.17954583, 0.02662150, -0.00177190, -0.30852365, -0.54515642, -0.49376279, -0.86046952, -0.94307452, -0.88539171, -0.12626545, 0.01780144, -0.01894373, -0.01221549, -0.04964844, -0.09938424, 0.01588617, -0.03498960, 0.24999802, 0.08317667, 0.27834621, 0.09087600, -0.13648850, -0.60888082, -0.12280442, 0.26313445, -0.30125672, -0.12892053, -0.10230426, -0.29304880, -0.23781395, -0.13080631, -0.10074121, -0.12237854, 0.15056421, 0.17494971, -0.06032845, -0.07977424, 0.03817879, 0.00968206, 0.27558252, -0.21069987, -0.13495579, -0.36732802, -0.33042097, -0.33488160, -0.11691105, -0.04956483, 0.16484487, 0.17499501, 0.01168198, 0.13746378, -0.10866489, -0.17338550, 0.29984254, 0.14069551, -0.16294828, -0.22244224, -0.37652817, -0.33625743, 0.09828774, 0.21013048, 0.02350046, 0.18884009, -0.04072795, 0.37223113, -0.51270229, -0.26660559, 0.32221395, 0.45921892, 0.37557292, 0.28556204, 0.16334619, 0.06226083, 0.25066504, 0.11605855, 0.20283701, 0.00164250, 0.18007788, 0.23044975, -0.39827600, -0.10978419, 0.16271241, 0.22393589, 0.05234057, 0.33807877, 0.15562300, -0.03935350, -0.05385752, 0.03968770, 0.00672268, -0.01132055, 0.13197507, 0.32225090, 0.26925033, 0.12374620, -0.16344725, 0.33993796, 0.13413490, 0.04814999, -0.00965103, 0.12504725, -0.07721968, -0.05133919, -0.06601691, 0.07124202, 0.27929315, 0.12025735, -0.19955571, 0.09693651, -0.01122178, 0.49193868, 0.15487596, 0.18076010, -0.01804730, -0.03487925, -0.06156067, -0.18692964, -0.19430770, -0.01989060, 0.31086054, -0.09694259, -0.15756762, 0.00000000, 0.00000000, 0.00000000, 0.00000000, 0.00000000, 0.00000000, 0.00000000, 0.00000000, 0.00000000, 0.00000000, 0.00000000, 0.00000000, 0.00000000, 0.00000000, 0.00000000, 0.00000000, 0.00000000, 0.00000000, 0.00000000, 0.00000000, 0.00000000, 0.00000000, 0.00000000, 0.00000000, 0.00000000, 0.00000000, 0.00000000, 0.00000000, 0.00000000, 0.00000000, 0.00000000, 0.00000000, 0.00000000, 0.00000000, 0.00000000, 0.00000000, 0.00000000, 0.00000000, 0.00000000, 0.00000000, 0.00000000, 0.00000000, 0.00000000, 0.00000000, 0.00000000, 0.00000000, 0.00000000, 0.00000000, 0.00000000, 0.00000000, 0.00000000, 0.00000000, 0.00000000, 0.00000000, 0.00000000, 0.00000000, 0.00000000, 0.00000000, 0.00000000, 0.00000000, -0.06275348, -0.06703239, 0.00578207, 0.12783040, -0.04855134, 0.16790040, -0.07969981, -0.15905832, 0.16546795, -0.07341196, -0.08970048, 0.05357002, -0.03343964, 0.03019574, -0.10612515, -0.07487716, -0.37276191, -0.21321242, -0.45400602, -0.14564744, -0.19166487, -0.33466962, -0.26069960, 0.11201306, -0.39670739, -0.31537890, 0.00379230, 0.00747887, 0.01195772, 0.17175891, -0.26294470, -0.21304518, -0.20539106, 0.14421426, 0.13441147, 0.18343818, -0.06634694, 0.07853365, -0.20784517, -0.07833103, -0.24351867, 0.05722193, -0.33109570, 0.14917484, -0.23586076, -0.21568920, -0.18200502, -0.14720352, 0.02395561, 0.43407467, 0.55099171, 0.32040116, 0.24054597, 0.20416740, 0.16564110, -0.09922503, 0.24095388, 0.13889204, -0.14037375, 0.00694030, 0.04535722, 0.32818303, 0.32188350, 0.27221346, 0.30665118, 0.34754992, -0.00589821, 0.10402881, 0.04892796, -0.20029084, 0.08819203, -0.13918932, -0.06176290, 0.13536915, 0.24678266, 0.33920667, -0.01428618, -0.22706512, -0.13024208, -0.15238166, -0.11326571, -0.09058070, 0.13587831, 0.30317000, 0.11847283, -0.07789371, -0.00243123, 0.12099709, -0.00649536, 0.10282520, -0.36087838, -0.62046456, -0.35596240, -0.29027301, -0.06875619, -0.05445031, 0.09992392, -0.13625142, 0.02498346, -0.39429110, -0.10061131, -0.01716083, -0.08694429, -0.02563347, -0.11334530, -0.39645702, -0.21268639, -0.13910982, -0.26919943, -0.19792084, 0.03322283, 0.08038099, -0.33203256, -0.50120455, -0.13435151, -0.13364577, 0.01951247, 0.13154165, -0.30382997, -0.41307068, -0.20573966, -0.15708072, -0.24544510, -0.19643080, -0.20344302, 0.33647338, -0.08006972, -0.19103107, -0.10244578, -0.12808983, 0.06212115, 0.00974264, -0.03671723, -0.16917433, -0.02039951, -0.18028301, 0.00527953, -0.15780203, 0.06890717, 0.36820295, 0.11301947, -0.12819460, -0.04155563, 0.00085491, 0.09729887, 0.07526878, 0.14150830, 0.16278616, 0.14954765, 0.19660655, 0.19686337, 0.32127488, 0.30031198, 0.27539766, 0.13345404, -0.08844370, 0.08440062, 0.06094291, -0.06458066, 0.29008690, 0.08567747, -0.00132393, 0.16386332, 0.31416357, 0.12812407, 0.35814103, 0.21904355, 0.26791397, -0.05631781, 0.06303447, -0.22799122, -0.11851644, -0.02698069, 0.24753550, 0.16208433, 0.31319088, 0.19446336, 0.17412047, 0.34198916, 0.22278920, 0.33845127, 0.27053806, 0.03807506, 0.01361559, -0.30169177, -0.31535867, -0.01619096, -0.11624444, 0.03676532, 0.10959857, 0.06192102, 0.19684759, 0.28180781, 0.42505115, 0.03541743, -0.13566615, 0.00000000, 0.00000000, 0.00000000, 0.00000000, 0.00000000, 0.00000000, 0.00000000, 0.00000000, 0.00000000, 0.00000000, 0.00000000, 0.00000000, 0.00000000, 0.00000000, 0.00000000, 0.00000000, 0.00000000, 0.00000000, 0.00000000, 0.00000000, 0.00000000, 0.00000000, 0.00000000, 0.00000000, 0.00000000, 0.00000000, 0.00000000, 0.00000000, 0.00000000, 0.00000000, 0.00000000, 0.00000000, 0.00000000, 0.00000000, 0.00000000, 0.00000000, 0.00000000, 0.00000000, 0.00000000, 0.00000000, 0.00000000, 0.00000000, 0.00000000, 0.00000000, 0.00000000, 0.00000000, 0.00000000, 0.00000000, 0.00000000, 0.00000000, 0.00000000, 0.00000000, 0.00000000, 0.00000000, 0.00000000, 0.00000000, 0.00000000, 0.00000000, 0.00000000, 0.00000000, -0.00941403, -0.04237018, 0.14672665, 0.05116715, 0.14739664, 0.25766128, 0.46778166, 0.36284631, 0.00226743, 0.30797240, 0.20098576, 0.17444369, 0.02705331, -0.06200505, 0.07451510, -0.06502651, 0.26445258, 0.41625413, 0.08413093, 0.00619388, 0.11367276, 0.08845340, 0.08160124, 0.12533803, -0.19728629, -0.08833628, 0.17252269, 0.11524194, 0.13074006, -0.14881960, 0.10570762, 0.24916895, 0.00975243, 0.04208355, -0.00413706, 0.04733942, -0.04790527, 0.00417908, -0.05720292, 0.01739501, -0.02968245, 0.28518119, 0.12369299, -0.04049626, 0.04523296, 0.13802139, 0.08207598, 0.14220323, -0.01038587, -0.06751939, -0.07593019, 0.02189064, 0.18464293, -0.00762123, 0.01810909, 0.17661001, 0.19956221, 0.00803072, 0.02614370, 0.15921964, 0.13447626, 0.17671230, 0.12022273, 0.16663681, 0.04839193, -0.02120209, -0.03633038, 0.10539101, 0.06960861, 0.52641654, 0.28554550, -0.13736597, 0.09354031, 0.18233417, 0.25501058, -0.19546723, 0.01547103, 0.10681876, 0.15399301, -0.23743208, -0.19258234, 0.04989399, 0.16093419, -0.00897884, -0.03368154, -0.24191524, 0.20173916, 0.05888156, -0.09696320, -0.48248819, -0.45124820, 0.16951333, 0.08818676, -0.02634273, -0.02089939, 0.10748202, 0.07635940, -0.03251962, 0.05875794, 0.07817788, -0.01236252, -0.20091780, -0.63003260, -0.54656470, 0.05793505, 0.39813653, 0.00641173, -0.18537743, -0.10220593, -0.02953319, 0.16819279, 0.18954535, -0.10134070, -0.20022836, -0.38804087, -0.72682536, -0.59597063, 0.09590331, 0.60680747, 0.23976074, -0.04119042, 0.07186114, -0.05557254, -0.11270404, 0.14665119, 0.24126840, 0.24784410, -0.03539009, -0.46210828, -0.77924871, -0.21452717, 0.68870741, 0.61000097, 0.30135477, -0.14927301, -0.05432663, 0.14184155, -0.16611251, -0.02454634, 0.30915344, 0.05573213, -0.45545030, -0.53678566, -0.39066932, -0.22846247, 0.20095634, 0.48728222, 0.04513134, 0.03940573, 0.13133231, -0.01847047, -0.31246445, -0.00507235, 0.25691482, 0.15743299, -0.21328470, -0.30256251, -0.15701966, -0.27863380, -0.28296360, 0.13041767, 0.19159493, -0.12935472, -0.03756810, -0.02946607, -0.11999427, -0.09323273, 0.36733285, 0.01320690, 0.02864486, -0.26591569, -0.25274342, -0.15761448, -0.16515057, 0.06392337, 0.17760630, -0.15221660, -0.18288210, 0.14618020, -0.03788655, 0.06637974, -0.04188856, 0.04780196, 0.01637246, -0.15033489, 0.00712479, -0.07592688, -0.09804416, -0.18862772, -0.25936642, -0.14291406, -0.13318357, -0.33601868, -0.25453839, 0.12655462, -0.13715294, 0.00000000, 0.00000000, 0.00000000, 0.00000000, 0.00000000, 0.00000000, 0.00000000, 0.00000000, 0.00000000, 0.00000000, 0.00000000, 0.00000000, 0.00000000, 0.00000000, 0.00000000, 0.00000000, 0.00000000, 0.00000000, 0.00000000, 0.00000000, 0.00000000, 0.00000000, 0.00000000, 0.00000000, 0.00000000, 0.00000000, 0.00000000, 0.00000000, 0.00000000, 0.00000000, 0.00000000, 0.00000000, 0.00000000, 0.00000000, 0.00000000, 0.00000000, 0.00000000, 0.00000000, 0.00000000, 0.00000000, 0.00000000, 0.00000000, 0.00000000, 0.00000000, 0.00000000, 0.00000000, 0.00000000, 0.00000000, 0.00000000, 0.00000000, 0.00000000, 0.00000000, 0.00000000, 0.00000000, 0.00000000, 0.00000000, 0.00000000, 0.00000000, 0.00000000, 0.00000000, 0.06683654, 0.09519137, -0.09501842, 0.16581053, 0.06646104, -0.19642809, -0.15498003, -0.42587563, -0.23657097, 0.11431932, 0.15429153, 0.18441001, -0.03566740, -0.05893691, 0.02654843, -0.02419854, 0.31176949, 0.49470234, 0.20985070, 0.47970095, 0.19848360, -0.21136880, -0.07156658, 0.13251176, 0.15883899, 0.01350339, 0.18232442, 0.32581660, -0.15882674, -0.27686805, -0.14814281, 0.13258128, 0.02074265, 0.26693982, 0.32709280, 0.28203884, 0.14610527, 0.18230742, 0.16150390, 0.12198932, 0.36464477, 0.41411307, 0.09687597, -0.33326176, -0.07007308, 0.20648628, 0.08788361, 0.20507817, 0.54453206, 0.45737070, 0.21156831, 0.04666230, 0.01892602, -0.15444013, 0.19792099, 0.29321334, -0.35781249, -0.02617952, 0.14655438, 0.23343533, 0.14765587, 0.13352320, 0.20050721, -0.18065400, -0.19716260, -0.04625246, -0.14317884, 0.06566603, 0.12665470, 0.13021146, -0.30331096, -0.11148337, 0.13943888, 0.10746610, 0.36796531, 0.19153289, -0.05953890, -0.29266927, -0.18623346, 0.08754314, 0.21717042, 0.17257932, -0.04881747, 0.05849859, -0.42800736, -0.19453956, -0.08693559, 0.16041845, 0.14208354, 0.24021131, 0.19059277, 0.16264641, 0.19015865, 0.27728340, 0.18263282, -0.04357162, 0.02593042, -0.32519019, 0.25261280, -0.06630365, -0.00165998, 0.12772989, 0.01759646, 0.11586077, 0.48581210, 0.13880841, 0.28191972, 0.27739599, 0.16725956, -0.11050238, -0.14289524, 0.06418201, 0.19904420, 0.01094833, -0.16873780, -0.03164066, -0.10471857, 0.22987372, 0.09814026, 0.15457870, 0.22482255, 0.29298910, 0.03843626, -0.21870886, -0.27081218, -0.42710969, -0.26333773, -0.03364210, 0.08526464, 0.00797161, 0.11584435, 0.11181201, -0.06279455, -0.00488570, 0.37732756, 0.30305776, 0.09066568, -0.22405718, -0.31790110, -0.46639246, -0.06838750, 0.21370173, -0.00688201, -0.02948521, -0.09274708, -0.14374940, 0.13649884, 0.25391605, 0.18358631, -0.02676998, 0.00212492, -0.15742993, -0.33354816, -0.45092556, -0.15943748, 0.19461524, -0.38058150, -0.07059623, 0.04591294, 0.19203372, 0.06589400, 0.02334944, -0.07617208, -0.05211289, 0.05294788, 0.14937739, 0.05861216, -0.47077733, 0.04456453, 0.08370273, 0.11387665, -0.15313323, -0.01070444, 0.06543128, -0.02807849, -0.19168814, 0.04884548, 0.16773173, 0.31737390, 0.21491762, -0.19642000, -0.23450419, 0.03447145, -0.01919988, 0.04180482, -0.09756927, -0.02402733, -0.07296204, -0.05748923, -0.04216700, -0.26612887, -0.03666412, -0.09588953, -0.23599476, -0.02566218, 0.03091437, 0.00000000, 0.00000000, 0.00000000, 0.00000000, 0.00000000, 0.00000000, 0.00000000, 0.00000000, 0.00000000, 0.00000000, 0.00000000, 0.00000000, 0.00000000, 0.00000000, 0.00000000, 0.00000000, 0.00000000, 0.00000000, 0.00000000, 0.00000000, 0.00000000, 0.00000000, 0.00000000, 0.00000000, 0.00000000, 0.00000000, 0.00000000, 0.00000000, 0.00000000, 0.00000000, 0.00000000, 0.00000000, 0.00000000, 0.00000000, 0.00000000, 0.00000000, 0.00000000, 0.00000000, 0.00000000, 0.00000000, 0.00000000, 0.00000000, 0.00000000, 0.00000000, 0.00000000, 0.00000000, 0.00000000, 0.00000000, 0.00000000, 0.00000000, 0.00000000, 0.00000000, 0.00000000, 0.00000000, 0.00000000, 0.00000000, 0.00000000, 0.00000000, 0.00000000, 0.00000000, -0.14864241, -0.07078765, -0.10253062, 0.28079721, 0.46142119, 0.16547857, 0.21231999, -0.19288577, -0.12424949, 0.32441953, 0.24341694, 0.23047170, 0.05772656, 0.06502585, -0.13612036, 0.23609085, 0.04347389, 0.18109424, 0.15931116, 0.53365582, 0.55035830, 0.43055826, 0.11271827, 0.13739745, 0.14961232, 0.06730873, 0.03696480, 0.12309064, 0.15633030, -0.01008034, -0.41401824, -0.18188785, -0.17362010, -0.27830741, -0.35247099, -0.66123885, -0.38490361, -0.57682961, -0.42824638, -0.57748681, -0.34716600, -0.19290559, 0.40879413, -0.02636110, -0.31901151, -0.01287369, 0.19292215, 0.14374752, 0.24955356, 0.42930532, 0.24094531, -0.23175891, -0.31043965, -0.51099825, -0.46016949, -0.59185570, 0.10407936, -0.12337940, -0.01967603, 0.16777430, 0.18026800, 0.29519287, 0.40926003, 0.13464697, -0.00212000, -0.23156042, -0.29838750, -0.39626333, -0.30232695, -0.45322806, 0.07744031, 0.24393119, 0.16054976, 0.08140301, 0.03350676, -0.07484569, -0.14507622, 0.00794699, 0.11822472, 0.10540368, 0.05156147, -0.30529600, -0.43763310, -0.35653377, 0.10138778, 0.15970582, -0.18472871, -0.00436128, -0.03048790, -0.27347818, -0.25618875, 0.33516085, 0.29065388, 0.34258685, 0.08733646, -0.21566422, -0.39706880, -0.08154055, 0.16234334, -0.00236060, -0.11883046, 0.03575096, 0.01526908, 0.13184410, 0.05636227, 0.21410851, 0.14289555, 0.10472315, 0.00256348, -0.21811804, -0.30267277, -0.09815393, 0.21075748, 0.26770240, -0.07110689, 0.12795198, 0.11881800, 0.45625731, 0.00541692, 0.11863790, 0.13040425, 0.10867815, -0.07400676, -0.36774662, -0.40974388, 0.14589933, 0.08487652, 0.02478030, -0.37550139, -0.15183991, -0.12419084, 0.17698126, 0.12431878, 0.10110893, 0.09924386, -0.10241850, -0.26330099, -0.13914484, -0.18693849, -0.02227349, -0.08306960, 0.19835643, -0.36175656, -0.23471120, -0.43588659, -0.23750937, -0.12133217, 0.04745912, -0.20120677, -0.27662846, -0.27208728, -0.09376960, 0.11957265, -0.38972431, -0.11993969, 0.00364284, 0.24864553, 0.07931219, -0.10831027, -0.13827619, -0.24627055, -0.42963317, -0.40703717, -0.50423437, -0.03663606, -0.13447841, -0.01620990, -0.28936765, 0.15455766, 0.42253864, 0.61995327, 0.40311518, 0.29865095, 0.05643546, -0.19973789, -0.26584557, -0.35903004, -0.08973236, 0.12946245, 0.29948804, 0.05321746, -0.19801494, 0.13906024, 0.03215589, 0.20600115, 0.69219118, 0.54304606, 0.53838766, 0.53627807, 0.31882149, 0.26896361, 0.30811495, 0.29274571, 0.04023559, -0.05907761, -0.05355301, 0.00000000, 0.00000000, 0.00000000, 0.00000000, 0.00000000, 0.00000000, 0.00000000, 0.00000000, 0.00000000, 0.00000000, 0.00000000, 0.00000000, 0.00000000, 0.00000000, 0.00000000, 0.00000000, 0.00000000, 0.00000000, 0.00000000, 0.00000000, 0.00000000, 0.00000000, 0.00000000, 0.00000000, 0.00000000, 0.00000000, 0.00000000, 0.00000000, 0.00000000, 0.00000000, 0.00000000, 0.00000000, 0.00000000, 0.00000000, 0.00000000, 0.00000000, 0.00000000, 0.00000000, 0.00000000, 0.00000000, 0.00000000, 0.00000000, 0.00000000, 0.00000000, 0.00000000, 0.00000000, 0.00000000, 0.00000000, 0.00000000, 0.00000000, 0.00000000, 0.00000000, 0.00000000, 0.00000000, 0.00000000, 0.00000000, 0.00000000, 0.00000000, 0.00000000, 0.00000000, -0.14408286, 0.11708601, -0.14515939, -0.33554080, 0.00773919, -0.53809714, -0.34922576, 0.30964345, -0.29886568, -0.07375959, -0.06214743, -0.12565845, -0.01498741, 0.06891547, -0.08142124, 0.15491328, -0.06851358, 0.11056605, -0.14157227, 0.03263910, 0.12066100, 0.19850190, 0.48165017, 0.07965491, 0.04441940, 0.08506915, -0.04081717, -0.09195311, 0.12170444, -0.09409082, 0.11676162, 0.14691843, 0.05219737, 0.09157352, -0.02630028, 0.14222284, 0.17321251, 0.15459481, -0.12636864, -0.01108375, -0.52517962, -0.41656986, 0.14415891, 0.13641350, 0.10928410, -0.39094090, 0.01121866, -0.00141685, 0.00504189, -0.02861915, 0.01568896, 0.06353306, 0.13631678, -0.08388617, -0.06752757, -0.23184821, 0.12903987, -0.13369310, -0.13333139, -0.13676877, -0.15198915, 0.04715135, 0.04276029, -0.17610522, -0.46058264, -0.00372834, 0.37071908, 0.26454371, 0.34806329, -0.63174313, 0.04685916, 0.19203284, 0.21081661, 0.01439998, 0.33119887, -0.02799581, -0.27680221, -0.57313484, -0.47391400, -0.38054943, 0.03950536, 0.41861290, 0.51121569, -0.11958612, -0.19971845, -0.03552349, 0.16032229, 0.30716348, 0.43850464, -0.25556991, -0.42528313, -0.21038386, -0.45796707, -0.47872216, 0.11097129, 0.26923928, 0.19420317, -0.22802797, 0.00550467, -0.20693931, 0.39450401, 0.49852639, 0.08379973, -0.33751655, -0.43377021, -0.13465971, -0.38627923, -0.08130565, 0.22076069, 0.21952866, -0.10846477, 0.16832516, 0.04611606, -0.07469199, 0.19424298, 0.39310586, 0.08841056, -0.28920686, -0.21742791, -0.09156271, -0.10175127, 0.21548639, 0.23216648, 0.14616078, 0.02670329, 0.06496023, 0.20983998, -0.51337117, 0.21933369, 0.39042220, 0.19654268, -0.13532382, 0.00543932, -0.02956208, 0.26604116, 0.25570872, 0.32504180, 0.27878639, 0.00528003, 0.27262676, -0.02707502, -0.03534971, 0.24974236, 0.27529383, 0.27569112, -0.10554453, 0.04672113, -0.04112897, 0.05958014, 0.18757764, 0.03486375, 0.21001051, 0.26533788, 0.15517022, 0.02127627, 0.12713738, 0.13097657, 0.14658809, 0.17496870, 0.02321021, 0.14534466, 0.02370162, -0.10885204, -0.03143436, 0.14764515, 0.11552704, -0.03739408, -0.09478988, 0.14509110, 0.21486130, -0.14518532, 0.20867680, 0.11785810, 0.11434820, 0.06539918, -0.17014770, -0.47421545, -0.30986720, 0.23024873, -0.13482960, -0.08168786, 0.05211015, -0.13663492, -0.02716784, -0.23079172, -0.44768229, -0.40981260, 0.07128470, 0.10603511, 0.08486034, -0.26197603, -0.36865720, -0.28006518, 0.07897321, -0.08221566, -0.04842047, 0.00000000, 0.00000000, 0.00000000, 0.00000000, 0.00000000, 0.00000000, 0.00000000, 0.00000000, 0.00000000, 0.00000000, 0.00000000, 0.00000000, 0.00000000, 0.00000000, 0.00000000, 0.00000000, 0.00000000, 0.00000000, 0.00000000, 0.00000000, 0.00000000, 0.00000000, 0.00000000, 0.00000000, 0.00000000, 0.00000000, 0.00000000, 0.00000000, 0.00000000, 0.00000000, 0.00000000, 0.00000000, 0.00000000, 0.00000000, 0.00000000, 0.00000000, 0.00000000, 0.00000000, 0.00000000, 0.00000000, 0.00000000, 0.00000000, 0.00000000, 0.00000000, 0.00000000, 0.00000000, 0.00000000, 0.00000000, 0.00000000, 0.00000000, 0.00000000, 0.00000000, 0.00000000, 0.00000000, 0.00000000, 0.00000000, 0.00000000, 0.00000000, 0.00000000, 0.00000000, 0.00856142, 0.13664071, 0.08323255, -0.01668734, -0.06791761, 0.05208885, -0.05000172, 0.17484759, -0.14053033, -0.02812544, -0.26861006, 0.01065003, 0.09574364, 0.16195475, -0.00645849, -0.13902777, -0.11941503, 0.42176896, 0.22353721, 0.15707852, 0.30905086, 0.24420641, 0.12543298, -0.11839579, -0.04671860, -0.03208702, -0.36114308, -0.30397800, 0.08492112, 0.08679596, 0.27259257, -0.02358968, -0.18233281, -0.05831150, -0.10724910, 0.10636078, 0.13634725, 0.15131055, 0.19108021, -0.03623547, -0.16490430, -0.36549124, 0.09896681, -0.21807951, 0.03715448, -0.07208332, 0.10599307, 0.15338236, 0.20465848, -0.04843012, 0.06442144, 0.21484724, -0.00661508, 0.10282211, -0.38580826, -0.24555342, 0.00934311, -0.09938219, -0.16636145, -0.13866945, 0.03849405, -0.09469967, -0.27622610, -0.06056672, 0.27258152, 0.32717797, 0.29535717, 0.08170389, -0.35241985, -0.52938998, 0.31151596, 0.06969689, -0.17656152, -0.24936336, -0.19661205, -0.67055190, -0.53496879, 0.04833515, 0.20651290, 0.06230092, 0.12299983, 0.04064415, -0.12641221, 0.03227599, -0.34117582, -0.31674686, -0.49969411, -0.13348724, -0.01466551, -0.22092262, -0.24796446, 0.16071902, -0.10675994, -0.01850985, -0.11698983, -0.32035848, -0.61572975, 0.02959884, -0.32592398, 0.05610877, 0.16133340, -0.04104079, -0.15917136, -0.03726926, 0.12010852, 0.37602484, -0.01046344, -0.13999850, -0.16733013, -0.43061677, -0.12277084, 0.11071786, 0.25586390, 0.04224554, 0.04657966, -0.32179055, -0.11460683, 0.07275414, 0.31926799, 0.24977073, -0.24995215, 