//Numpy array shape [32, 10]
//Min -1.553237438202
//Max 1.080977916718
//Number of zeros 0

#ifndef W6_H_
#define W6_H_

#ifdef __INTELFPGA_COMPILER__
hls_init_on_powerup
#endif
static const model_default_t w6[320] = {0.19721723, 0.37076929, 0.27360412, 0.35376486, -0.89099538, -0.25257301, -0.44689178, -0.77389795, -0.01760537, 0.01602440, -0.64100403, -0.92231369, -0.61909592, 0.42735708, 0.59023440, 0.43864274, 0.11296592, -0.53571701, 0.47902265, 0.36167702, -0.24283768, 0.28034216, -0.03214134, 0.27383360, 0.28474361, -0.98303908, 0.50008875, -0.08706150, -0.25163946, 0.07269672, 0.63132870, -0.72401047, -0.32606035, -0.19363451, -0.84997612, -0.52422738, -0.02698819, 0.07315467, 0.21638577, 0.54097515, 0.30357113, -0.87321711, 0.24286060, -1.05540037, 0.53321558, -0.13392642, -0.94762617, -0.13404742, 0.66284907, -0.02444327, -1.17608011, 0.22233912, -0.40022409, -0.29385990, 0.20261449, 0.46568063, 0.35359430, 0.60084903, 0.09594283, 0.36279246, -0.69989359, -0.93172944, 0.75128829, 0.79881608, 0.01385715, -0.41860789, -0.32712269, -0.43738791, 0.05956313, 0.63865024, 0.10572089, -0.13297534, -1.45709848, 0.68734443, -0.21247205, -0.36810270, -0.12314773, 0.15343578, -1.41525948, 0.15578826, 0.31876534, 0.24610749, 0.29839149, 0.79788053, -0.99907422, -0.86760306, 0.32299170, -0.52747560, 0.86711490, -0.68997550, 0.65943968, 0.33558667, -0.02672355, -0.14152808, 0.13407491, 0.43603969, -0.45008340, 0.12923096, 0.66558707, 0.23260204, 0.55590731, 0.54414701, 0.43749151, -0.56396466, -0.23246159, -0.07859752, 0.24280107, -0.43709680, -0.77598262, 0.06972285, -0.37260574, -0.77751422, 0.02538025, -0.40915915, -0.15805110, -0.06412821, 0.44978559, 0.17588571, 0.46785584, -0.37459901, 0.98730636, -0.44020998, -0.83817339, -0.84068066, 0.29243615, 0.56639987, -0.63205117, 0.05143690, 0.48237351, 0.58360654, -0.92409271, 0.44617090, 0.54895228, -1.18877125, -0.32843670, -0.36061698, -0.23370221, 0.34672007, -0.03848753, -0.10098706, 0.64174455, -1.45441556, 0.14252466, -0.26929334, 0.42412373, 0.44571224, -0.80450636, -0.35557359, -0.71100348, 0.15405938, -0.20629624, -0.03763657, -1.03941441, -1.21364570, -1.21163356, -0.18714461, 0.30278265, -0.64283043, 0.57879704, -0.34315664, -0.62114316, 0.06040332, 0.24396256, -0.13174431, 0.12560451, 0.36343250, -0.65149313, -0.11739384, 0.76638943, 0.11520980, 0.65059346, 0.34877968, 0.08029758, -0.39203662, 0.54819620, -0.25956428, -1.55323744, -0.21252108, -0.11460119, 0.00522482, 0.40902096, 0.51140708, 0.06757776, -0.19623286, -0.69599801, 1.08097792, 0.42545122, -0.84440470, -0.01796416, -0.36840311, -1.18632257, -0.42126974, -0.44028786, -0.46312976, -0.11581103, -0.86601609, -0.22483927, -0.39938268, -1.15400672, 0.73547423, -0.07005067, 0.04326463, -0.77708840, -0.95200402, 0.52271533, -0.15146090, 0.66738695, 0.43884954, -1.06180882, 0.01355668, -0.63002086, 0.52404314, 0.33109492, 0.43443698, -0.60410517, 0.74128658, -1.10627973, -0.43739539, 0.24489418, 0.31191906, 0.25932324, 0.63218069, 0.13597396, -0.47477061, 0.53350341, 0.29311836, -0.58302146, -0.34056655, 0.34104472, -0.90786499, 0.53939867, 0.56173134, -0.39381090, -0.40194359, -0.48258480, 0.44601148, -0.27250120, -0.30543438, 0.28550854, -0.65174353, 0.09053591, 0.07237803, 0.45985416, -0.24426435, 0.18726015, 0.14516543, -1.17126012, -0.54167980, 0.27607638, -0.73613572, 0.42303205, 0.46363646, -0.46424046, 0.50957936, 0.13369100, 0.74280852, -0.93442458, 0.27270228, -0.06968513, 0.06114120, -0.14605583, 0.07259284, -0.13323878, -0.67311853, 0.00451053, -0.24907389, 0.38774705, -0.09954760, -0.30854642, 0.22223842, -0.19840106, 0.45418474, -0.24419607, 0.61922222, -0.19594510, -0.29988465, -0.28986034, -0.85670245, -0.39799345, 0.33693692, -0.27078283, -0.85892832, -0.42746645, 0.23965612, 0.44075224, -0.78872299, -0.45295075, -0.71076703, 0.43064299, 0.04446846, -0.43258005, 0.21499357, -1.08391917, -0.69491398, 0.05382380, -0.35575303, 0.18897496, 0.13619451, 0.30248895, 0.02909704, -0.10186169, 0.38203371, 0.47109580, -0.01867459, 0.73973507, -0.45356730, -0.55003035, -1.14416218, -0.22469945, -0.77685189, 0.71765941, 0.37338367, -0.31315684, 0.13532928, -0.25126797, -0.76247180, 0.38967529, 0.78649735, 0.29304844, -0.42321119};

#endif
